-0.0026341022
0.0030004517
0.00065580924
-0.026909078
0.006363655
0.013260139
-0.011178031
0.020639144
-0.003637321
-0.012325018
-0.012628897
-0.0072056684
-0.019321265
-0.024960019
-0.011885238
-0.008325851
-0.009574516
-0.016657589
0.009180384
-0.015354252
0.0071358345
0.030736668
0.01323915
-0.0077528073
0.004744824
0.011175318
0.015948541
-0.016711907
-0.0010130118
-0.003716746
0.0065269247
-0.01204062
0.009042687
-0.0008327887
0.008864725
-0.026306907
-0.0145883765
0.0029433328
0.0029717544
-0.019124862
-0.004792215
0.01382759
0.009880216
-0.018416738
0.019734433
0.0016941032
0.012419861
-0.005584245
-0.010612198
0.00039846948
0.0042733056
-0.013298474
0.020661479
0.016962796
0.0027951654
0.0007421364
0.01316755
0.0032212914
0.010458281
0.016511235
0.00091716525
0.0039387643
-0.0056534195
0.019371832
0.0075237537
0.013436861
-0.0131851025
-0.010026268
0.0071919747
-0.0023165517
-0.01889472
0.01251916
0.0019583453
0.007383564
-0.009666427
0.020188656
0.0076651894
0.018529423
0.015710173
0.018581707
-0.0069313697
0.017089812
0.009126757
-0.038875975
-0.024115793
-0.0068715205
-0.011647722
0.007881665
0.0018045637
0.028480224
-0.019378575
-0.01629457
0.01046785
-0.013027038
-0.0084210755
-0.02920973
-0.0024856378
-0.008714149
-0.016396925
-0.009305369
-0.015931234
-0.026346419
-0.0011090524
0.022589296
0.0021386577
-0.023211544
-0.014084611
-0.0056224316
-0.020090459
-0.0302845
-0.049573567
0.02328314
0.014954192
-0.00775013
-0.0039481525
-0.037629087
-0.024219755
-0.010193871
-0.007703753
-0.004131204
-0.002955292
-0.0062173666
-0.012075733
-0.0070167785
-0.0038948092
-0.01695259
-0.024584971
0.005535299
-0.008337035
-0.0070759156
-0.024022894
-0.0063686306
0.0007341966
0.0052883257
-0.02218144
-0.026972055
-0.017990123
-0.016392829
0.0021484946
-0.016122118
-0.016111687
0.006593146
-0.020045072
0.006414865
-0.012600504
-0.007623845
0.011410569
-0.045084298
-0.0092018
-0.015562512
-0.013590243
-0.0014374066
-0.019465612
0.020737452
-0.010475562
0.006322902
0.008322866
-0.010790712
-0.01890344
0.0058624083
-0.0020188617
0.032436073
0.040580887
-4.0819847e-05
0.0108858645
-0.016543686
-0.0005336474
-0.022903439
0.004629465
-0.0048402357
0.010187106
0.017954212
0.0048210514
0.006183074
0.01441942
-0.012093685
-0.008746047
0.001948845
0.014684731
0.012463934
0.0070523103
-0.0041782535
0.0120482445
-0.020199075
0.009914352
0.013978103
-0.0010321136
0.0057393755
0.0014019263
0.00060112774
-0.0005578984
0.02442362
0.023075696
-0.014610384
0.011185277
0.03460836
0.016943831
0.0043295235
-0.025606409
0.012278501
-0.025809998
0.008536481
0.02043727
0.02255686
0.022966038
0.008841977
-0.01389391
0.0038719068
-0.009304553
0.023220317
-0.014948602
0.0069258288
0.005006955
-0.017302107
0.0010364344
-0.010222934
-0.009694948
0.0345344
0.006133663
0.011581977
-0.020529408
-0.021955982
0.005310905
0.034101352
-0.0058079264
0.02940605
-0.008795394
-0.005250477
-0.019087734
0.030350199
0.018444981
-0.021224678
0.018431822
0.013831979
0.017848168
-0.004476199
0.03585761
0.02176198
0.010880486
0.04025454
-0.0020049238
-0.0030348292
0.009329278
-0.016303807
0.000962529
0.018673422
-0.016567096
0.014963588
-0.0037205608
-0.007673439
-7.925393e-06
0.0039731953
-0.009597917
-0.016832959
5.8524274e-05
-0.0064125876
0.0082976855
0.0048206705
-0.0011466906
0.0048868717
0.017348701
0.0039221887
-0.0078080045
0.016051294
0.009880202
-0.01014358
0.020912452
-0.006320322
-0.02313909
0.0011645997
0.02246842
-0.0066953227
0.018310634
0.01462251
-0.011654187
-0.014305938
0.012973995
-0.009686518
-0.0062350803
0.013180286
0.006754285
0.046417885
-0.027962284
-0.0151112415
0.028715748
0.00919914
-0.005370993
-0.0060360506
-0.0072140284
-0.00924214
0.0018536359
-0.0031078116
-0.008400416
-0.016766163
0.0040935567
0.0062426436
-0.0012470176
-0.012919135
0.0035818699
0.011006227
-0.013281607
0.0026395363
0.008995314
0.0065420526
-0.012031207
0.017148769
0.01794936
-0.010581386
-0.02696172
-0.013564022
-0.009717284
-0.0021175898
0.035370406
0.018392071
0.026676249
-0.0010594063
-0.0033949458
-0.0048837857
0.01342688
-0.013947545
-0.019559091
-0.023294691
-0.037834164
-0.014636655
-0.021322861
-0.030951777
-0.030822396
0.0019437909
0.0028637098
-0.02119814
0.010448388
-0.011315694
-0.0042608706
0.022646949
-0.012867482
-0.011017802
0.012336136
-0.020057311
-0.02183651
-0.0068067056
-0.010487659
-0.026297698
-0.009957883
-0.012966195
-0.002483186
-0.0070940373
0.017997239
-0.0064257463
0.0079069175
-0.012287241
0.0098176235
0.0026674063
-0.02152442
0.0027511409
-0.009207457
-0.017541481
-0.0017103179
-0.0145884715
0.0044246544
0.03440522
0.012724758
0.030884933
0.0013089979
-7.008362e-05
-0.00231653
-0.0037989328
-0.011148276
0.017209936
-0.0067574885
-0.0001369442
-0.008916579
-0.01628111
-0.0044919946
0.011331716
-0.0015909304
-0.0088192625
-0.0049398714
0.004573163
-0.010949203
0.012890319
-0.006658644
-0.0025605424
0.0027964849
0.011224721
-0.022054525
-0.003927077
-0.006646747
-0.01884041
-0.02168696
-0.00074065966
-0.027281448
0.0050448296
-0.020708775
-0.03410278
-0.022373646
-0.016655717
-0.02791626
-0.009897726
0.005525234
0.016013378
-0.014895083
0.0035090724
0.009000282
-0.008398175
-0.03747941
0.020726504
-0.0058798813
0.009176796
-0.020297421
-0.007314814
-0.0016965664
-0.0014029393
0.0032229004
0.029211905
0.012486547
-0.020099767
0.021169744
-0.025299614
0.031815056
-0.0010644543
-0.0104489615
-0.023418756
0.014563932
0.02124471
0.016529797
-0.003243578
-0.020436982
-0.036982402
-0.008721319
0.0054574963
0.0011048095
0.0022012095
0.002951171
-5.9938768e-05
0.0005578474
-0.0036906446
0.005376274
-0.024764625
0.009272922
0.0096080545
0.00916468
0.009088018
0.0074842214
-0.011946156
0.0213949
0.027922332
0.0146917645
-0.0024957824
0.02888718
0.013422432
0.0017173107
0.0025018067
-0.02125291
-0.0008242425
0.004218263
0.008598138
0.018734612
0.008562198
-0.008825521
0.017461697
-0.01369338
0.002195526
0.010771745
0.0028693152
0.031031538
0.008546017
-0.014197663
-0.00224717
0.018739743
-0.012904838
0.04037049
-0.0007753841
0.001867106
0.007279297
-0.026508084
-0.017608833
-0.024141863
0.0029576737
-0.015916668
0.0016273455
0.0111320475
0.014574144
-0.008191908
-0.007658114
-0.018452112
-0.009041878
0.0040882505
0.04448163
-0.023663508
-0.0052547404
-0.019529173
0.0032859973
0.0054666977
-0.004955843
0.007680478
-0.0033025558
-0.0026247862
-0.011094445
0.023922058
0.018079478
-0.01813477
0.0052203694
-0.013559116
0.019447923
0.010981374
0.026868708
-0.0066801035
-0.000893891
-0.003492427
-0.019666987
-0.018510863
-0.0007626159
-0.01638211
-0.01586246
-0.013717285
0.017527921
-0.0011418905
-0.006334641
-0.011117574
0.013159241
-0.023464022
0.00027993377
-0.0003627325
0.023797028
-0.0027352972
-0.02222267
0.013414893
0.010442994
-0.023512313
0.016831925
0.004369906
-0.013243261
-0.0028605026
0.005421198
0.0019924042
-0.0006866378
-0.0003909208
0.017805919
0.01839058
0.028472768
-0.033835493
-0.0107775675
-0.012371198
-0.0019109912
-0.00163815
0.017288484
-0.0039812652
-0.015166873
-0.010780933
0.005380771
-0.0003394667
0.0003388483
-0.010161547
-0.0040265946
-0.0034751105
0.0042359214
-0.0014677199
0.013207032
0.0075579584
0.00019396556
0.0030048012
0.008628296
-0.011192644
0.038465712
-0.026220094
-0.020250702
-0.0063872365
0.021905815
-0.0073400405
0.0052752867
-0.011708552
0.008400884
0.0028529905
-0.004721979
0.023118036
-0.007603916
0.002813593
-0.011700763
-0.0044118296
0.011845514
-0.0017631586
-0.012260318
-0.0021210418
0.012071759
0.006752271
-0.00019127871
-0.02510486
0.012693098
0.016061619
0.008126409
0.001385663
0.0030086671
-0.014110606
0.019783627
-0.0009230113
-0.018427964
0.0078059253
0.015319229
-0.012767522
-0.0090165865
0.018030645
0.02485312
0.017788311
0.008864044
-0.009442184
-0.001365219
0.012931583
0.009013307
0.016654864
-0.0054320563
0.027479857
-0.03178085
-0.013331402
0.0055791875
-0.013278024
-0.019218782
-0.013306876
0.0042390386
0.030246379
-0.008199007
0.008300758
0.01899278
0.010643206
0.03132427
0.01928326
0.0033642144
0.019668931
0.0022673204
-0.019630276
0.020147208
-0.011432801
-0.007607299
0.015071317
-0.0030395286
-0.009343017
-0.004165682
0.0022971903
-0.005098502
-0.014498664
-0.027672907
-0.038720947
0.0054248814
0.013504219
-0.0012810878
0.03746509
0.0015154133
0.02403503
-0.020556543
0.009840586
0.010351882
0.03859665
-0.011904951
-0.021718023
0.008377794
0.014690709
0.02263092
-0.0037628664
0.015570479
-0.009398967
0.005353622
0.019583562
-0.011155752
0.015190162
0.00546218
0.022994684
0.029259624
-0.0015236435
0.0066008554
-0.03193859
-0.010486447
-0.0044617145
0.031852882
0.013736489
0.013560857
0.0070907073
-0.016752604
-0.025469722
0.019752137
0.02671544
-0.00468595
0.017681833
0.032496445
0.014553272
0.026101397
0.01134144
-0.0022270854
0.035236873
-0.011892261
-0.018682659
-0.005524527
-0.007073159
-0.005266961
0.0075946134
-0.018464668
-0.016897118
0.010126909
0.013006176
-0.001825087
0.00066651456
-0.0112072285
0.01356273
-0.018152721
-0.026486572
0.006065154
0.03971058
-0.01428548
0.018001202
-0.014039183
-0.018762002
-0.011777846
-0.016448827
0.009042321
-0.007273029
0.017516885
-0.0007301557
0.010212458
0.023785451
0.008128585
0.008026007
0.011922052
0.006241611
-0.024624858
0.02946103
-0.014182696
-0.01867169
-0.014057254
0.00798716
-0.021080732
-0.027559847
-0.003569014
0.0015993116
0.009472023
0.018271659
-0.0023741915
0.0011842895
-0.00057722215
0.0087818075
0.0027804188
0.0006797261
0.015876919
-0.007035913
0.0025486627
-0.017925393
0.008491243
0.0043375427
0.024508344
0.0036686247
0.0102522215
-0.0133956745
0.00045705822
0.010312841
0.015229284
0.039907336
-0.008080904
0.013760229
-0.006586275
0.0066065774
-0.03147996
0.024665218
0.0034374248
0.020973045
0.019383729
-0.02088011
0.0071465434
0.010406459
2.2273352e-05
-0.019182485
0.0063135326
-0.00016890543
0.008866432
-0.0047665774
-0.01449343
0.0032175651
0.0073346
0.020694267
-0.00049972144
0.018819725
0.039146755
-0.027095353
-0.01829301
-0.01986801
-0.0094048185
0.004155194
0.005383677
-0.004666259
-0.01301897
-0.024451999
-0.008923113
-0.014602924
0.0025529403
-0.030766463
0.011168962
-0.0068112854
-0.0075967005
-0.009319137
0.0014918956
-0.002342836
0.00044397794
-0.010809931
0.008849827
-0.021022117
-0.008037964
-0.010818365
-0.006481536
-0.0020680756
0.022325918
-0.019233895
0.004084397
0.00077233074
0.0017226345
-0.017453657
-0.01319024
-0.0074112075
-0.0017550167
0.0012925786
-0.006702874
-0.007058764
0.006274518
-0.018067576
-0.009485533
-0.020855937
0.008960423
0.021293573
0.017024668
0.021014558
0.008823315
-0.009827748
-0.022293327
0.024294931
-0.011173941
-0.0075753345
0.0061182203
-0.02065267
-0.016264422
0.026456667
-0.014781686
0.018653523
0.025487518
0.024105806
0.004788838
0.02332935
0.00035805654
0.025154477
0.017093627
0.017803468
0.024686586
0.009008463
0.002361049
0.02608758
-0.014110192
-0.00054211967
0.0008949769
0.021150073
0.004848394
-0.030503247
-0.007502522
-0.03371839
-0.028913343
0.015690958
0.006204744
-0.0108532645
0.019523822
-0.016188214
0.008988962
0.009189425
-0.0028591848
-0.010911243
0.010848053
0.0487836
-0.0019686702
0.026842892
-0.0048715267
0.013488855
-0.014523016
-0.02758454
0.0061227866
0.0048171403
0.0021566106
-0.037560705
0.0307747
0.01997659
0.018479694
0.0030368208
0.009382489
0.0004524277
0.061649736
-0.008641596
-0.026913362
0.006352657
0.007798524
0.013179883
-0.0016665999
0.020865146
0.009948029
0.008813613
0.014840609
0.0033210635
0.003634185
0.028739586
-0.022120336
-0.0071567157
0.01035178
0.016432855
0.011682718
-0.005805802
-0.0006929717
0.02657781
0.008796662
-0.03168881
0.018948687
-0.008585857
0.034228418
-0.015236841
-0.005970911
0.001106887
-0.018394405
-0.019245904
-0.036360566
0.003983925
0.041236892
0.013816176
-0.0073303934
0.0038831763
0.0024367366
-0.02162485
-0.014522738
-0.00016280756
0.0006256555
-0.016797695
0.023083152
0.0097114425
-0.008220692
0.0011595463
-0.020982955
-0.0066540358
-0.014097251
0.0034066823
-0.0077575357
-0.014738213
-0.021343475
0.0054122875
0.003974678
-0.0046185087
-0.015462147
-0.007622864
0.012210519
-0.0048453133
-0.00887572
-0.0102747865
0.007348249
-0.006034925
0.0023657586
0.021052828
-0.008568771
-0.011630199
-0.027332297
-0.02064776
0.0044952426
-0.018648783
-0.011564269
0.00045904666
-0.006183133
-0.024435211
-0.007118654
-0.014393709
-0.0023544265
0.021556152
0.022924451
-0.013725417
0.007778513
-0.008551322
0.024221089
0.0038191609
0.00070947414
0.016114451
0.025932105
0.018108295
0.029305916
0.0016772682
-0.0030166004
0.032015365
-0.014034059
0.027365204
-0.018858226
0.0025831962
0.013498166
-0.013501931
-0.014939658
-0.010903988
0.01864245
0.0042593456
-0.016742282
-0.012637917
-0.0454681
-0.005082311
-0.025093153
0.006784731
-0.01786789
-0.0007824972
-0.006344781
