0.020238708704710007
-0.02984389290213585
-0.00603546854108572
0.005356861278414726
0.02470286376774311
0.0009454051032662392
0.007676723413169384
-0.012997373938560486
-0.017256835475564003
0.002491719089448452
-0.002957801101729274
-0.012409918010234833
0.01917874626815319
0.022878184914588928
0.016132449731230736
-0.01536793727427721
0.0013966845581308007
0.0004359725571703166
0.014483297243714333
0.016663845628499985
0.010172626003623009
0.023670058697462082
-0.0012095690472051501
0.016109852120280266
-0.005376893095672131
-0.011735117062926292
-0.010726687498390675
-0.029510539025068283
-0.007240386679768562
0.03918682783842087
0.011589881032705307
0.002806253731250763
-0.005424370523542166
-0.004025495611131191
0.0001383921189699322
-0.011612210422754288
-0.001859469572082162
0.015769850462675095
-0.01773183047771454
0.010555517859756947
0.012518075294792652
0.006809544283896685
-0.012895702384412289
-0.0044474913738667965
0.003541048150509596
-0.002749077510088682
0.02228810265660286
0.0232294499874115
0.010078099556267262
0.01264110766351223
0.007905636914074421
0.021108584478497505
-0.016827978193759918
0.006293552927672863
-0.028307348489761353
0.007488235365599394
-0.02943805791437626
0.04902259260416031
0.04970189183950424
0.03824034333229065
-0.06210673972964287
0.017567375674843788
0.013667715713381767
0.05512842908501625
0.06364087760448456
-0.01590692438185215
-0.021542638540267944
0.024152839556336403
0.0029220811557024717
0.036655932664871216
-0.0002558917331043631
0.010257384739816189
0.06044638901948929
-0.020746544003486633
-0.028417885303497314
0.03829697519540787
0.022449074313044548
0.012475896626710892
-0.01617325097322464
-0.006924495100975037
-0.012504730373620987
-0.005796660669147968
-0.01410708762705326
-0.031421590596437454
-0.014500736258924007
0.026878124102950096
0.0008345976239070296
0.061785560101270676
-0.025482969358563423
0.04573441296815872
-0.02322756126523018
-0.00044626850285567343
-0.01793660782277584
-0.020320147275924683
-0.0009134268038906157
-0.006476840004324913
0.0028838219586759806
0.011060633696615696
-0.006536615546792746
-0.027389101684093475
-6.667941488558426e-05
0.012583903968334198
0.01908177323639393
0.03735646232962608
0.005471836309880018
0.038678377866744995
0.006922701373696327
-0.02861487865447998
-0.006701445206999779
-0.04235345125198364
-0.11660493910312653
0.011963162571191788
0.0010935981990769506
0.02654752880334854
0.018300052732229233
-0.05501643940806389
-0.0016248701140284538
0.026445962488651276
-0.0027349095325917006
-0.02703419141471386
0.001050538383424282
-0.038161177188158035
0.013212763704359531
-0.004981992766261101
-0.02446601912379265
0.005748158786445856
-0.06105959787964821
0.002715017180889845
0.005951620638370514
0.0007952495361678302
-0.06790417432785034
0.00899880938231945
0.044903937727212906
-0.004144486505538225
-0.048999056220054626
-0.038525816053152084
-0.030756525695323944
-0.0030013376381248236
0.004497711546719074
-0.007283986080437899
0.007695036008954048
0.005554444622248411
-0.015949003398418427
-0.03349340334534645
-0.012481044977903366
-0.01919509284198284
0.020323636010289192
0.005361033137887716
0.019482756033539772
0.018587356433272362
0.005805397871881723
0.01731063798069954
-0.0824534222483635
0.06250301748514175
-0.01292327605187893
0.020149966701865196
0.02713807113468647
-0.0017073762137442827
-0.05913219228386879
0.024080118164420128
-0.006387223489582539
0.0316474586725235
0.07658012956380844
-0.00034453620901331306
0.031730204820632935
-0.028832877054810524
0.005733145866543055
-0.039463117718696594
0.0402519665658474
0.008994927629828453
0.035316549241542816
0.07234717160463333
-0.0005338536575436592
-0.028689218685030937
0.06237432360649109
-0.04209955036640167
0.012403878383338451
0.03711272031068802
0.04226367175579071
-0.0010894492734223604
0.025798127055168152
0.013201073743402958
0.05987216532230377
0.026515543460845947
-0.007721805013716221
0.01682754047214985
0.019598908722400665
0.03445776179432869
-0.008931531570851803
0.029611937701702118
-0.01188733708113432
0.0311437901109457
0.037924934178590775
-0.00683496193960309
0.02905542217195034
0.07074382901191711
0.03535183519124985
0.004525691736489534
-0.006737705785781145
0.0489654578268528
-0.07123899459838867
0.0065040504559874535
0.05840053781867027
0.053596872836351395
0.01792743243277073
0.03693322464823723
-0.0196888018399477
0.03386502340435982
-0.013453417457640171
0.06993990391492844
0.004433963913470507
-0.01828714832663536
0.015174041502177715
-0.02275678515434265
0.016308914870023727
0.04544566571712494
-0.028600487858057022
0.04943625256419182
0.007525020278990269
-0.010545534081757069
-0.022604459896683693
-0.016501978039741516
0.04572035372257233
0.0844738632440567
-0.01226138137280941
0.0725126639008522
0.002453046850860119
0.006405008025467396
-0.006610510870814323
0.07098351418972015
0.03559041768312454
-0.02191842347383499
0.06704171001911163
0.015240839682519436
0.06062662973999977
0.010640103369951248
0.025195404887199402
0.04045747593045235
0.045375317335128784
0.06449956446886063
0.014049448072910309
-0.026033341884613037
0.006923849228769541
0.015410078689455986
0.010395924560725689
-0.0022499565966427326
-0.02174251712858677
0.027360916137695312
-0.0040054176934063435
0.0036920341663062572
0.048794589936733246
0.02201034128665924
0.02348446100950241
-0.03567191958427429
0.0599307157099247
0.0035723100882023573
0.010215030051767826
0.07178480923175812
0.015093102119863033
0.01940927654504776
-0.010630710981786251
0.010040823370218277
-0.03502465412020683
0.051083143800497055
0.006741600576788187
0.015886902809143066
0.042008522897958755
-0.05077287182211876
-0.017900124192237854
0.027642425149679184
0.020627301186323166
-0.004613049793988466
0.021795738488435745
0.0059295943938195705
-0.03298879414796829
-0.007595167960971594
0.01980266347527504
0.0094290254637599
-0.008734085597097874
0.017098193988204002
-0.02227039821445942
0.12360795587301254
-0.03820675611495972
0.0014394826721400023
0.054519716650247574
0.048117682337760925
0.03478201851248741
-0.004701896570622921
-0.01983102597296238
0.03884473443031311
0.006084995344281197
-0.014381191693246365
0.049490638077259064
-0.02705751359462738
-0.024786680936813354
-0.0063278526067733765
0.014276913367211819
0.022483110427856445
-0.04923349246382713
0.038480404764413834
-0.0296501312404871
-0.018599314615130424
-0.0019932433497160673
-0.04210891202092171
-0.06056202948093414
0.017470091581344604
0.027787961065769196
-0.034155942499637604
-0.005023335572332144
-0.020080523565411568
-0.0538310743868351
-0.007046426646411419
-0.04012450575828552
0.05206827446818352
0.005373059306293726
0.009015318937599659
-3.256110358051956e-05
-0.033794816583395004
-0.027959205210208893
-0.024056438356637955
-0.010066141374409199
-0.038688767701387405
-0.023882217705249786
-0.028880663216114044
0.0019372535170987248
-0.05998373404145241
-0.01354507077485323
-0.060373228043317795
-0.03148583322763443
-0.07433197647333145
0.006361585576087236
-0.03045525774359703
0.030601439997553825
0.052993085235357285
0.051747094839811325
0.022551437839865685
0.00901393499225378
-0.021590279415249825
-0.0488775335252285
0.02612970769405365
-0.001244964892975986
-0.03822493925690651
0.0068277642130851746
0.015273614786565304
0.02542652189731598
-0.03335302323102951
0.033671095967292786
0.016623087227344513
-0.016128886491060257
0.023300204426050186
0.026169506832957268
-0.00831090472638607
-0.013620172627270222
-0.010198297910392284
0.012645324692130089
-0.002704392885789275
-0.05169869586825371
-0.01218347530812025
-0.004291183780878782
0.07060212641954422
-0.010590813122689724
0.03330402821302414
0.0015505189076066017
0.027523299679160118
0.035228997468948364
0.02625219337642193
0.047357238829135895
0.029449455440044403
-0.015236075967550278
0.04103061556816101
-0.011940893717110157
-0.038416266441345215
0.034908849745988846
0.025367675349116325
0.0005399532965384424
0.003252870636060834
0.02067934162914753
0.016295429319143295
0.05973076820373535
0.015223775058984756
-0.060551878064870834
-0.017673760652542114
0.0669747143983841
0.0147610604763031
-0.019037432968616486
-0.0034593758173286915
0.03779333084821701
-0.0051097571849823
0.005889665335416794
0.019403085112571716
-0.023563852533698082
0.01917370595037937
-0.022747507318854332
-0.02009798213839531
-0.005056156776845455
0.02375829964876175
0.006655521225184202
-0.00739468727260828
-0.056200530380010605
0.02318781614303589
0.003331631887704134
0.02497643046081066
-0.013101421296596527
0.024160806089639664
-0.00850882288068533
0.049697306007146835
0.01055377908051014
-0.07418772578239441
-0.07590319961309433
-0.024109549820423126
0.0011067913146689534
-0.0034544910304248333
-0.01605869270861149
0.036028627306222916
-0.0028019212186336517
-0.026728997007012367
0.03902573138475418
-0.04261608049273491
-0.009959865361452103
-0.0083776181563735
0.02844815142452717
-0.012166769243776798
-0.05332816392183304
0.03489559143781662
0.05465363338589668
0.00894628930836916
-0.042293980717659
-0.06171922758221626
0.007020517252385616
-0.03217267617583275
-0.003780724247917533
0.05207749456167221
-0.023974241688847542
0.017425717785954475
-0.0688735768198967
-0.0026061823591589928
0.030595099553465843
-0.015023051761090755
0.014021521434187889
-0.05086119472980499
0.0037215384654700756
-0.002680601319298148
0.03563046455383301
-0.030362367630004883
0.022297220304608345
0.0495804138481617
0.0012368790339678526
-0.03418036922812462
0.06070059910416603
0.03385522589087486
0.0061321440152823925
0.007236301898956299
-0.0016917177708819509
0.036148931831121445
0.021222060546278954
-0.033271726220846176
0.019069021567702293
-0.006014928221702576
-0.027366286143660545
0.0028984351083636284
-0.0034128690604120493
0.016886580735445023
-0.0035749217495322227
-0.06819092482328415
0.02384568378329277
0.016105538234114647
0.043023064732551575
0.013928251340985298
0.029886525124311447
0.014959623105823994
-0.022988585755228996
0.020963484421372414
-0.02843526564538479
0.02012491598725319
0.033749233931303024
0.08236277848482132
-0.025719692930579185
0.10292204469442368
0.001240320154465735
-0.027879731729626656
0.05286496505141258
-0.024874499067664146
0.005887307226657867
-0.004371470771729946
-0.027919413521885872
0.03251892328262329
-0.01756749302148819
0.05197501182556152
-0.08383164554834366
0.014786181971430779
-0.012771353125572205
0.04530778527259827
0.024352725595235825
-0.040641721338033676
-0.055089350789785385
-0.0223682951182127
0.033539071679115295
-0.0798104852437973
0.022757722064852715
-0.019839569926261902
0.009042655117809772
-0.02424163930118084
-0.09231344610452652
0.011919152922928333
0.024049952626228333
0.032104719430208206
-0.08470436185598373
-0.01665719784796238
-0.0030554134864360094
0.004630945157259703
-0.02336263842880726
-0.004579900298267603
0.015235220082104206
0.012099819257855415
0.012569024227559566
0.016497384756803513
-0.019934160634875298
0.03315797820687294
-0.008176627568900585
-0.020282704383134842
-0.03628343716263771
-0.00756041519343853
0.028871890157461166
0.002825814764946699
0.044512879103422165
0.004755108617246151
0.07738518714904785
0.05927104502916336
-0.030498547479510307
-8.849472942529246e-05
-0.010403904132544994
-0.01952335238456726
-0.0008461149409413338
-0.023710113018751144
0.016756245866417885
0.03804432973265648
-0.024882040917873383
0.027984779328107834
-0.0024580247700214386
-0.002751251682639122
-0.01462823711335659
-0.044960685074329376
-0.0020490153692662716
-0.04621187224984169
-0.007018838077783585
-0.005362033378332853
-0.0039620245806872845
-0.011775954626500607
0.026604164391756058
0.022970691323280334
0.025484900921583176
0.023256463930010796
-0.030783122405409813
-0.04498475044965744
-0.021355796605348587
-0.01383478194475174
-0.03788328543305397
0.01367370318621397
-0.03584747016429901
-0.060238007456064224
-0.016030114144086838
0.009965842589735985
-0.039750050753355026
0.051178961992263794
0.034657444804906845
-0.028057590126991272
0.0008169912034645677
-0.04745807126164436
-0.005673782899975777
0.021224478259682655
0.04139348119497299
-0.010329882614314556
-0.024759745225310326
-0.028965232893824577
0.004136122763156891
0.026227040216326714
0.011228395625948906
0.047628387808799744
-0.024561526253819466
0.017257533967494965
-0.048838935792446136
-0.027126284316182137
-0.07232698798179626
0.04393256828188896
-0.037270430475473404
0.0028985245153307915
0.02512810006737709
0.025232812389731407
-0.009096642956137657
0.03192616254091263
-0.014032639563083649
-0.005336979869753122
0.02592507377266884
-0.008303680457174778
0.01859663426876068
-0.03474929556250572
-0.01661662384867668
0.08284257352352142
0.0150859784334898
-0.05071452632546425
-0.03201358765363693
-0.0033381322864443064
0.0009930500527843833
0.03232273459434509
-0.009593890979886055
0.01884990930557251
0.031632114201784134
-0.052701301872730255
0.008188765496015549
-0.0026958254165947437
0.03290368989109993
-0.020901326090097427
0.0031156891491264105
0.022588346153497696
-0.021897558122873306
-0.04570406302809715
-0.04873186722397804
0.049819815903902054
-0.03466020151972771
-0.052025213837623596
0.05652675777673721
-0.001999963540583849
0.004756939597427845
-0.01029155496507883
-0.012004481628537178
-0.027112480252981186
-0.004417529329657555
0.04701504856348038
0.00941829290241003
-0.010293184779584408
0.024826766923069954
-0.021165266633033752
-0.03472769260406494
0.0261781495064497
0.03372886776924133
-0.010051104240119457
-0.02495936118066311
-0.040963102132081985
-0.06275875866413116
0.007639201357960701
-0.024505754932761192
-0.035311631858348846
0.005456612445414066
-0.05415827035903931
-0.07532031089067459
-0.01879037544131279
-0.02065686695277691
-0.012283364310860634
0.019106004387140274
0.013046902604401112
0.011992180719971657
0.04559318348765373
-0.010797603987157345
0.025651780888438225
0.02929691970348358
0.07148081064224243
0.03439578041434288
0.017480354756116867
-0.01927907206118107
-0.038182683289051056
0.04422066733241081
0.020792851224541664
0.017786264419555664
-0.004178542178124189
0.014239958487451077
0.046463459730148315
-0.000661391532048583
0.0018974397098645568
0.027179596945643425
0.029929783195257187
0.03352486342191696
0.07760024815797806
0.03642818704247475
0.020723531022667885
0.04426833614706993
0.006629680283367634
-0.08384032547473907
0.011171997524797916
0.005137116648256779
-0.01304089929908514
0.011879854835569859
0.02229757234454155
0.012055251747369766
-0.016229206696152687
-0.02839251421391964
0.028677232563495636
-0.00158702302724123
5.208750008023344e-05
-0.02198776975274086
-0.01620287261903286
0.008471444249153137
0.055200766772031784
-0.010170835070312023
-0.06934285908937454
-0.01871393248438835
0.0401821993291378
0.018755342811346054
0.002823085058480501
-0.014026793651282787
-0.014811641536653042
-0.02536597102880478
-0.02169119007885456
-0.03732544556260109
0.019512563943862915
0.041395775973796844
-0.06726986914873123
0.05438454449176788
0.036109600216150284
-0.03258640319108963
-0.01579662412405014
-0.014585018157958984
-0.004529043100774288
-0.02414044924080372
0.0418664775788784
-0.04293547570705414
0.03422720730304718
0.014479833655059338
0.002340659499168396
-0.010121491737663746
0.01359010860323906
0.010311637073755264
-0.036855071783065796
-0.005696099251508713
-0.045188963413238525
-0.008257818408310413
-2.2379837901098654e-05
0.05005606263875961
0.006853076629340649
-0.006749619264155626
-0.03357510641217232
-0.06239326298236847
0.00795087032020092
0.014348185621201992
-0.08325035125017166
-0.030460398644208908
-0.010488374158740044
-0.020691201090812683
-0.028650926426053047
0.03656848147511482
0.10958442836999893
0.00662188557907939
-0.02289116196334362
0.009884316474199295
0.04304836317896843
-0.030546430498361588
0.04770034924149513
-0.035617828369140625
0.015470127575099468
-0.01397554762661457
0.027720017358660698
-0.0259296502918005
0.0013436523731797934
0.0283637885004282
-0.013525987043976784
-0.06868670880794525
0.017460409551858902
0.0501713752746582
0.017447637394070625
0.03802945092320442
0.009857517667114735
0.022886184975504875
0.012857237830758095
-0.026916202157735825
0.04895089566707611
-0.009644478559494019
-0.03589325025677681
-0.02635934390127659
-0.020543791353702545
0.003696095896884799
-0.009165308438241482
0.021354179829359055
-0.04277811944484711
-0.041527677327394485
-0.038514144718647
-0.03179578483104706
0.034630123525857925
0.04750823229551315
0.02445976436138153
-0.062254779040813446
-0.05274230241775513
0.0087197320535779
-0.004412931855767965
-0.018273089081048965
-0.035542260855436325
-0.008385431952774525
0.07814155519008636
0.016182791441679
-0.029595989733934402
0.004544049967080355
-0.016409002244472504
-0.06885387748479843
0.00552676385268569
-0.000910655246116221
0.0075422911904752254
0.00030179909663274884
-0.04567800089716911
0.02274639718234539
0.001749731949530542
-0.033456165343523026
-0.009039207361638546
-0.062201958149671555
0.05378640815615654
0.0003893921966664493
0.040257491171360016
0.0031604880932718515
-0.06948785483837128
-0.032255928963422775
0.02304846979677677
0.002630731789395213
-0.03920735791325569
-0.050876274704933167
-0.04584350436925888
0.032221052795648575
-0.027124207466840744
-0.007508350536227226
-0.004467629361897707
0.041102711111307144
-0.005678567569702864
-0.03959815949201584
0.014338291250169277
0.002384331775829196
0.01462129782885313
0.04601143300533295
0.0007858250755816698
0.013014380820095539
0.014411013573408127
-0.02896319329738617
-0.04460485279560089
0.008526185527443886
-0.02886229380965233
-0.005321633070707321
0.02022174932062626
0.0035987175069749355
0.015160439535975456
0.08086646348237991
-0.015476212836802006
0.04487205296754837
0.0006019845604896545
-0.012368281371891499
0.008161722682416439
-0.0037857238203287125
-0.04220310598611832
0.02607596665620804
0.021670959889888763
-0.01693999208509922
0.013442846946418285
-0.026323623955249786
0.036310531198978424
0.04850602522492409
-0.0037339297123253345
0.014108321629464626
0.000779019552282989
-0.06001707538962364
0.0037350342608988285
-0.026110375300049782
0.005028139799833298
-0.024350527673959732
-0.02737651765346527
-0.03766949474811554
0.03807024657726288
0.010931706987321377
0.028159812092781067
-0.03576238825917244
0.023260651156306267
0.019775964319705963
-0.003826087573543191
-0.0065859477035701275
-0.018928732722997665
-0.04502663016319275
-0.011969436891376972
0.00877562165260315
-0.026215767487883568
-0.02118851989507675
0.012913274578750134
-0.018512403592467308
-0.02665507234632969
0.0040893517434597015
0.0016387266805395484
-0.01681758649647236
-0.010804279707372189
0.03958214446902275
0.018490135669708252
0.025662101805210114
-0.047438107430934906
0.018841922283172607
-0.03961805999279022
-0.02239033952355385
-0.0047946497797966
0.0006267805001698434
0.0014640478184446692
-0.02961319126188755
-0.02372819557785988
0.005874149035662413
0.039343491196632385
-0.004497230984270573
0.0012785125290974975
0.019657308235764503
0.008627084083855152
0.009473130106925964
-0.08314540982246399
-0.009530434384942055
0.005840588826686144
-0.02798258140683174
0.011320050805807114
0.005298222415149212
0.021871451288461685
-0.000885944755282253
-0.0038309425581246614
-0.05780988186597824
0.0030409640166908503
-0.021916622295975685
-0.07486484199762344
-0.04373963922262192
0.02040737308561802
-0.0034061616752296686
0.018807439133524895
-0.017269840463995934
0.017385343089699745
0.04749631881713867
0.06639492511749268
-0.017039012163877487
-0.010943775065243244
0.007327752187848091
0.02625710889697075
-0.021868297830224037
-0.01065108086913824
0.02566489763557911
-0.039924658834934235
0.009338798001408577
0.06971234828233719
-0.010000363923609257
-0.0323755145072937
-0.07812415808439255
-0.026672301813960075
-0.00010220078547718003
0.02982165291905403
0.006293056067079306
-0.01531592570245266
-0.02468971535563469
-0.023385941982269287
-0.00851124431937933
-0.00756715377792716
-0.03547214716672897
0.008375715464353561
-0.04493323713541031
-0.02590516023337841
-0.03546682000160217
-0.07137413322925568
0.009266635403037071
-0.07315876334905624
-0.09665843844413757
-0.031080028042197227
-0.035131048411130905
-0.016772644594311714
-0.022671662271022797
0.007431763224303722
-0.009819609113037586
-0.04474100098013878
-0.023274416103959084
-0.042748648673295975
-0.010063298046588898
0.004550515208393335
-0.016073063015937805
-0.04817187786102295
-0.04407571628689766
0.061853714287281036
-0.009511273354291916
0.026094583794474602
-0.08635541796684265
0.016137689352035522
-0.00824074074625969
0.0509331077337265
0.0018535866402089596
-0.05132259055972099
0.02210131287574768
-0.0030344906263053417
0.036723263561725616
0.027383146807551384
-0.014680697582662106
0.010467706248164177
0.015814300626516342
0.01804240234196186
0.059350673109292984
-0.00019993772730231285
-0.052148304879665375
-0.028923077508807182
-0.03636259213089943
-0.06536043435335159
-0.0006374770891852677
-0.027561906725168228
-0.04424605518579483
-0.04876871034502983
-0.045221179723739624
-0.05848626419901848
-0.03161238878965378
-0.014006405137479305
-0.05094074830412865
0.02085813134908676
-0.03250955417752266
-0.007184737361967564
