-0.11751945316791534
0.009371827356517315
0.11343245953321457
0.012495619244873524
-0.08034712076187134
-0.03822900727391243
0.025911206379532814
0.017084062099456787
-0.03236892446875572
-0.017167314887046814
0.036916691809892654
0.05610267445445061
-0.03679174557328224
-0.07369066029787064
-0.023731615394353867
0.0708857923746109
0.13879424333572388
0.008396112360060215
0.10028575360774994
0.11617100238800049
0.09572356939315796
-0.15287548303604126
-0.08248211443424225
0.0753861591219902
0.04361550882458687
0.03530781716108322
-0.051830630749464035
0.055101267993450165
0.10002102702856064
-1.2883566617965698
0.0005367557751014829
0.049927402287721634
0.06319651007652283
0.1028519719839096
0.23175472021102905
0.00819853413850069
0.02759498730301857
0.08336649090051651
0.12768232822418213
0.13917076587677002
0.1457178294658661
0.029282627627253532
-0.13840660452842712
0.025616247206926346
-0.06959497183561325
-0.13612015545368195
0.03137575834989548
0.09876484423875809
0.08265417814254761
0.08432844281196594
0.13562944531440735
0.05064894258975983
0.012511221691966057
0.15001943707466125
-0.0675530880689621
0.04300863295793533
-0.0018281466327607632
0.16613340377807617
-0.0912938341498375
0.07873574644327164
0.08763980120420456
0.010323588736355305
-0.17400261759757996
0.10301446914672852
0.19301502406597137
0.054685041308403015
-0.029569942504167557
0.028154848143458366
0.24079298973083496
0.10872241109609604
0.0529276505112648
0.07909880578517914
0.088713139295578
0.010865181684494019
-0.05182193964719772
-0.03729069232940674
0.2698326110839844
0.003090383019298315
0.002820580266416073
0.20597553253173828
-0.0025845225900411606
0.00013050872075837106
-0.22920362651348114
0.22763437032699585
0.0332663469016552
-0.10871274024248123
0.06884296983480453
-0.033600352704524994
0.08537266403436661
-0.022239599376916885
0.1329011172056198
-0.015020748600363731
-0.21607860922813416
-0.051592741161584854
0.2945774793624878
-0.058781012892723083
-0.011782466433942318
-0.03779188543558121
0.04280674830079079
0.04952581226825714
0.19662471115589142
-0.19459256529808044
0.05099685117602348
-0.02386952005326748
0.05948084592819214
-0.0942797064781189
0.12516379356384277
0.05887855589389801
-0.03856045752763748
0.0060303062200546265
-0.0011375637259334326
0.09454839676618576
0.055031053721904755
0.33100491762161255
0.10379353910684586
0.007532952819019556
0.10166361927986145
-0.046531327068805695
0.17130325734615326
0.16491052508354187
0.17476674914360046
-0.0037272353656589985
0.08334425836801529
0.12243292480707169
0.013192134909331799
0.060392823070287704
0.132147878408432
-0.2861245274543762
0.21366968750953674
-0.044983115047216415
0.07650311291217804
0.04029208421707153
-0.0549883097410202
0.27455946803092957
0.08811481297016144
0.04435739293694496
0.13897135853767395
0.030584808439016342
0.021786890923976898
0.0169001966714859
0.015338385477662086
0.22825200855731964
-0.03619588166475296
-0.030090678483247757
0.03544521704316139
0.02217601053416729
0.22434024512767792
-0.030888130888342857
0.08128228783607483
0.097391776740551
0.08285662531852722
0.01035889983177185
0.09763919562101364
0.0478450283408165
-0.2353852391242981
0.09264291822910309
0.05165420472621918
-0.09951397776603699
0.05779865384101868
0.10307130962610245
0.09173194319009781
0.012984066270291805
0.036801546812057495
0.11253336071968079
0.019390670582652092
-0.11691596359014511
0.3920305073261261
-0.0636417418718338
0.1151428297162056
-0.15983431041240692
0.12919482588768005
0.1757357120513916
0.01222927961498499
-0.05780458077788353
0.17858745157718658
0.08730972558259964
0.19079363346099854
0.037650804966688156
0.028623031452298164
0.059516675770282745
-0.21158729493618011
0.03424246236681938
-0.010591050609946251
0.025613853707909584
0.10470449179410934
-0.055611975491046906
-0.0204774159938097
0.06955693662166595
0.18119925260543823
-0.0062036276794970036
-0.09778904169797897
-0.021976197138428688
-0.003130370983853936
0.06253229826688766
0.011730318889021873
-0.0034909106325358152
0.04264676943421364
0.09391488134860992
0.1253817230463028
0.04162674769759178
0.07631073147058487
0.12135686725378036
-0.055574167519807816
0.13378755748271942
0.10268738865852356
0.10451879352331161
0.023986415937542915
0.14015410840511322
-0.039868518710136414
0.031961582601070404
0.12045717239379883
0.015371774323284626
0.07453232258558273
-0.19316260516643524
0.061752256006002426
-0.07384476810693741
-0.02523089572787285
0.15000835061073303
0.1453205794095993
-0.8463346362113953
0.08707278966903687
0.10818508267402649
0.03508082777261734
0.0850534588098526
-0.12216107547283173
0.12834636867046356
0.15607351064682007
-0.03758823499083519
0.08017784357070923
0.1645260602235794
0.12252362072467804
-0.0006754141650162637
0.08294326066970825
-0.039197880774736404
-0.13525508344173431
0.0026116056833416224
-0.13416007161140442
0.1763724982738495
0.08794378489255905
0.007652426604181528
0.09981507807970047
0.06947820633649826
0.10368453711271286
-0.0028779066633433104
0.2065499722957611
0.05861268192529678
0.07436823099851608
0.08997239172458649
-0.027690833434462547
-0.04973055422306061
-0.0691351667046547
0.10867825150489807
0.026244422420859337
-0.20210377871990204
0.04736226052045822
0.12373728305101395
-0.005477382335811853
-0.004031267017126083
-0.030034642666578293
0.1407652348279953
0.12355852872133255
0.0037340326234698296
0.26445239782333374
0.14917221665382385
0.07822166383266449
-0.43484237790107727
0.028826838359236717
0.05476037785410881
-0.12364543974399567
-0.303512305021286
0.11206801235675812
0.07138838618993759
0.002580820582807064
0.09768728911876678
-0.020769568160176277
0.07692129909992218
0.048066288232803345
-0.03500190004706383
0.15971465408802032
0.06849108636379242
0.07324518263339996
0.07820239663124084
0.025484217330813408
0.13691167533397675
-0.00977011863142252
0.10845032334327698
-0.07616084069013596
0.0007719052955508232
0.20376279950141907
-0.09949325770139694
-0.09349104017019272
0.09567759931087494
-0.006871690042316914
-0.10968101769685745
0.08691814541816711
0.03653421998023987
0.33513763546943665
0.12180575728416443
0.18200761079788208
-0.0968184620141983
-0.11485125869512558
0.12914136052131653
0.03230811282992363
0.11906730383634567
0.03454692289233208
0.19014646112918854
0.07298555225133896
0.03903016820549965
-0.10508984327316284
-0.00983054842799902
-0.15110117197036743
-0.08972128480672836
0.37691858410835266
0.05721130594611168
0.009946387261152267
0.0754256546497345
0.015893826261162758
-0.023518100380897522
0.016229232773184776
0.030173884704709053
0.141736701130867
-0.045873332768678665
-0.03251926973462105
0.02435985952615738
-0.05169351026415825
0.008076634258031845
0.14054231345653534
0.14740397036075592
0.06702864170074463
-0.006378152873367071
-0.07715824246406555
0.06207861006259918
0.13730229437351227
-0.3657337725162506
0.22207875549793243
0.05373993515968323
0.05230115354061127
0.020853927358984947
0.06296698749065399
0.2204146683216095
-0.04588991403579712
0.11650189757347107
-0.06450223177671432
0.11855605244636536
0.10317376255989075
0.07314649224281311
0.16169466078281403
0.10085231810808182
0.09502916038036346
0.023691128939390182
0.04745231568813324
0.2696515619754791
0.030746188014745712
0.10556408017873764
0.06547866761684418
0.21520400047302246
-0.2639847993850708
0.05194071680307388
0.04337368533015251
0.0314316563308239
0.0788436233997345
-0.2149626463651657
-0.031007414683699608
-0.18203192949295044
-0.1306052803993225
0.19984297454357147
0.09490223228931427
0.029525205492973328
0.01274494081735611
0.03850867599248886
0.06023760885000229
0.1480732560157776
0.16039876639842987
0.06249352917075157
0.15620911121368408
0.04248279705643654
-0.18520362675189972
0.03697405382990837
0.032842788845300674
0.01500701904296875
-0.18008223176002502
0.17907071113586426
0.17162108421325684
-0.012325562536716461
0.14967742562294006
0.049689073115587234
0.05922988802194595
0.11796743422746658
-0.005837731529027224
0.14040221273899078
-0.3369627594947815
0.09106045961380005
-0.01281801424920559
0.12552277743816376
0.144214928150177
0.12493082135915756
-0.01381068304181099
0.07963385432958603
-0.184661865234375
0.03530934453010559
0.048164647072553635
0.07305677980184555
0.1029992327094078
0.04609224200248718
0.11199881136417389
-0.009188849478960037
-0.09398429095745087
-0.11322470754384995
0.212264284491539
0.10305158793926239
0.09477654844522476
0.05312654376029968
0.04219004511833191
0.0429963544011116
-0.04403021186590195
-0.02509511075913906
-0.05597488582134247
0.03985483571887016
0.07235408574342728
0.14146341383457184
0.1720908135175705
0.07617446780204773
0.03125307336449623
0.06528966873884201
-0.10976993292570114
-0.031702782958745956
0.11302096396684647
0.028284836560487747
-0.03315136954188347
0.17735452950000763
0.09352637827396393
0.22077490389347076
-0.017418185248970985
-0.015783065930008888
0.029758665710687637
-0.010274010710418224
0.028175855055451393
0.04180029407143593
0.05310382694005966
-0.14859150350093842
0.053250737488269806
0.031859755516052246
0.19541999697685242
0.008031154982745647
0.0014666396891698241
0.12945280969142914
0.1353379637002945
0.15359072387218475
0.09727758169174194
0.08614852279424667
-0.11137152463197708
-0.017901619896292686
0.009256288409233093
0.16293156147003174
0.4944291114807129
-0.1406903862953186
0.06113385036587715
-0.012496784329414368
-0.09614654630422592
0.0031645188573747873
0.042569976300001144
-0.06795155256986618
-0.023923011496663094
0.016651123762130737
0.007404731120914221
-0.0545242615044117
-0.17130066454410553
0.08067144453525543
0.1704445630311966
-0.16208231449127197
-0.026632824912667274
0.0744529664516449
0.24708911776542664
0.20263883471488953
-0.01967117004096508
0.05053038150072098
0.1586523950099945
0.0400153249502182
0.17632326483726501
-0.3787001371383667
0.14281223714351654
0.14695562422275543
0.10579606890678406
0.15323002636432648
0.09410174190998077
0.1127769947052002
-0.130081444978714
0.011961597949266434
-0.16751427948474884
0.12249168753623962
-0.006030137650668621
0.03440139815211296
0.00559038994833827
0.14561955630779266
0.08887689560651779
0.13026316463947296
0.01078498363494873
-0.04056471586227417
-0.019765935838222504
-0.21336038410663605
0.005884942598640919
0.14756634831428528
0.0012280276278033853
0.07306494563817978
0.013179408386349678
0.15285415947437286
0.10500150173902512
0.13455818593502045
0.0369272455573082
0.12595531344413757
0.16768565773963928
-0.0020959200337529182
