0.12299006432294846
0.019061854109168053
0.23201923072338104
0.05820857733488083
0.16951075196266174
0.093986876308918
0.1528756469488144
0.035992007702589035
-0.01067292783409357
0.04552407190203667
-0.03524661064147949
0.025516163557767868
0.3716484606266022
0.07431924343109131
-0.05533682927489281
0.18086124956607819
0.009736982174217701
0.26186665892601013
0.18216431140899658
0.08210495859384537
0.1673867106437683
0.016799377277493477
-0.07102959603071213
0.255995512008667
0.11928669363260269
-0.0603562593460083
-0.07907243072986603
0.02139938995242119
0.15857051312923431
0.10256397724151611
0.15697799623012543
0.10010790079832077
-0.03195768594741821
0.1292552649974823
0.06963785737752914
-0.06499163061380386
-0.02977684885263443
0.14159800112247467
0.19332988560199738
-0.05361368879675865
0.017314262688159943
0.34937214851379395
0.5495478510856628
0.05827661603689194
0.18566575646400452
-0.05647605285048485
0.05785641074180603
-0.3335379660129547
0.14938262104988098
-0.04462704434990883
0.2232353687286377
-0.1301610916852951
0.006658895406872034
0.17765676975250244
0.06196949630975723
-0.24899253249168396
0.07382068037986755
0.09530193358659744
0.010044572874903679
-0.05141131579875946
0.12429109960794449
0.10791529715061188
-0.041482627391815186
0.0963708758354187
-0.10660087317228317
0.07546521723270416
0.2561974823474884
0.14410677552223206
-0.02250107377767563
0.10363270342350006
0.07044930756092072
0.11813340336084366
0.03501280024647713
-0.16152048110961914
0.07505137473344803
0.14182059466838837
0.21378564834594727
0.04538590461015701
0.23022186756134033
0.10673347115516663
-0.2741125524044037
-0.008096510544419289
0.15952610969543457
0.10124364495277405
0.13450868427753448
0.0621374174952507
-0.06487328559160233
0.05252577364444733
0.07659731060266495
0.049358874559402466
0.062304094433784485
-0.032635048031806946
-0.047491028904914856
0.1355416476726532
-0.01842835173010826
0.006493450608104467
0.030954508110880852
0.3108905255794525
0.07006820291280746
-0.018541323021054268
-0.13481208682060242
-0.1260129064321518
0.19558610022068024
0.03407490998506546
0.16060692071914673
0.052856750786304474
0.07663656771183014
0.22150321304798126
0.039940252900123596
0.061566855758428574
0.07480146735906601
0.14434771239757538
-0.06799320131540298
-0.20013967156410217
0.3057076632976532
-0.045312680304050446
0.24059376120567322
0.5347955822944641
0.1780659705400467
0.4935118556022644
0.00740238931030035
0.03500163182616234
0.24675299227237701
0.31101828813552856
0.05397188663482666
0.14723145961761475
-0.02906520664691925
0.40776294469833374
0.19018784165382385
-0.060330163687467575
-0.01700226590037346
0.24975480139255524
0.21960094571113586
0.36960041522979736
0.030740395188331604
0.43709051609039307
0.08849658071994781
-0.275736540555954
-0.006641077809035778
0.14974792301654816
0.19136840105056763
0.13468271493911743
0.019792819395661354
0.07059665769338608
-0.00010223425488220528
0.06367862969636917
0.06409452855587006
-0.049773599952459335
0.13181251287460327
0.1331353485584259
-0.011899419128894806
-0.0035992031916975975
-0.07327017933130264
0.01590329222381115
0.020310016348958015
0.12015575170516968
0.15364672243595123
-0.13392433524131775
0.2988377511501312
0.06243964284658432
0.2643791437149048
0.06652810424566269
0.02211451344192028
-0.06378033757209778
0.1295471042394638
-0.11588431149721146
0.01534148957580328
0.18381497263908386
-0.07144755870103836
0.06351472437381744
0.07341646403074265
0.3328463137149811
0.24134531617164612
0.12292865663766861
-0.03673344850540161
-0.22642111778259277
0.09424352645874023
0.06401970237493515
0.06416898220777512
0.16127030551433563
0.11205243319272995
0.23401738703250885
0.040610454976558685
-0.10695818811655045
-0.08117716759443283
0.06274495273828506
-0.029593225568532944
0.09227973967790604
-0.0983555018901825
0.04265341907739639
-0.07186484336853027
0.07648763805627823
0.02980470471084118
0.1631762981414795
0.2207912653684616
0.22229893505573273
-0.0005163726746104658
0.07198833674192429
-0.004218390677124262
0.23270249366760254
0.20941442251205444
0.07969915866851807
-0.08631441742181778
0.017085930332541466
0.054668787866830826
-0.008952691219747066
0.5089650750160217
0.007797460071742535
0.18227635324001312
0.06433288753032684
0.7273866534233093
0.045105911791324615
0.14373309910297394
-0.03772209584712982
-0.05490918457508087
-0.012009931728243828
0.20434723794460297
0.17224571108818054
0.04068061336874962
0.019133666530251503
0.06249208003282547
0.013199902139604092
0.13521291315555573
0.08099322021007538
0.09528446197509766
0.25034821033477783
-0.021630508825182915
0.04149394854903221
0.03224886953830719
0.12095627933740616
-0.0040206583216786385
0.04067904129624367
0.36975347995758057
0.015898026525974274
-0.022886134684085846
0.02462584525346756
-0.27666041254997253
-0.02350444346666336
0.10643395781517029
-0.01242993026971817
0.1748538315296173
0.054469116032123566
0.08541955053806305
0.1931861937046051
0.0998077318072319
0.04657723382115364
0.25017738342285156
0.14843732118606567
0.2058846801519394
-0.0030332249589264393
0.029573719948530197
0.1316099762916565
0.02535383217036724
0.10219293087720871
0.13147428631782532
-0.07808120548725128
0.02317783609032631
-0.18244744837284088
-0.020426254719495773
0.05624658241868019
0.020667361095547676
-0.1648760586977005
-0.10449264198541641
-0.02499457821249962
-0.014024068601429462
0.015887117013335228
0.13549351692199707
0.17864617705345154
0.0690237358212471
0.20018677413463593
0.08333585411310196
0.23188552260398865
0.111640065908432
0.05201755836606026
0.05495697632431984
0.008396199904382229
0.038535814732313156
0.12274321168661118
0.11807803064584732
0.42507123947143555
0.0954817682504654
-0.022675342857837677
0.07562693953514099
0.18007893860340118
-0.10889049619436264
0.04209176450967789
0.1995677500963211
-0.24368904531002045
-0.02816781774163246
0.04533267766237259
0.04413837939500809
0.3613959848880768
-0.041163016110658646
0.123868927359581
0.03320375829935074
0.23844322562217712
-0.010794400237500668
0.06976020336151123
0.15945982933044434
0.08426596969366074
0.05743915215134621
-0.04123902693390846
-0.05994236841797829
0.013034526258707047
-0.03643158823251724
-0.05689156800508499
0.09588233381509781
-0.17122888565063477
0.1891440898180008
0.12669901549816132
-0.04253683239221573
-0.010868556797504425
0.05038023367524147
0.19144321978092194
0.29454413056373596
-0.05783689022064209
0.09613100439310074
0.19973231852054596
0.06177641823887825
0.24677181243896484
0.2436656504869461
-0.03354937210679054
0.06484700739383698
0.1438804715871811
-0.03659135103225708
0.04430684074759483
0.030093763023614883
0.02394685707986355
-0.06435584276914597
0.18526522815227509
-0.20821671187877655
-0.03549153357744217
0.13414159417152405
0.04529601335525513
-0.02809722349047661
0.13038985431194305
0.01010202243924141
-0.006075579673051834
0.09263873845338821
0.17997102439403534
0.12551571428775787
0.011525150388479233
0.13935887813568115
0.009272312745451927
-0.1209118515253067
-0.020336546003818512
0.13993367552757263
0.14385437965393066
0.18340127170085907
0.10170825570821762
0.04520858824253082
0.07463918626308441
-0.10023877769708633
0.07004906237125397
0.0748913437128067
0.05743783712387085
0.2039993554353714
0.128439798951149
0.0804942175745964
0.0869714543223381
0.0005528021138161421
-0.1510850489139557
0.01007730234414339
0.24396561086177826
0.036528028547763824
0.053694915026426315
0.11937405914068222
0.0988781750202179
-0.04136262461543083
-0.006117233540862799
0.10695814341306686
0.10583361238241196
0.3178926706314087
0.012104518711566925
0.03696552664041519
0.03888430446386337
1.3206512448959984e-05
-0.18044908344745636
0.09294867515563965
0.355790913105011
0.17562267184257507
0.05223456770181656
0.28716880083084106
0.08860143274068832
0.10815578699111938
-0.022063089534640312
0.03693057969212532
0.03134017065167427
-0.018422752618789673
0.1681448370218277
-0.00046886532800272107
0.19824545085430145
0.13458997011184692
0.042007386684417725
0.009231485426425934
0.08729156106710434
-0.03294453024864197
0.3259831964969635
0.10762545466423035
0.0006961899343878031
0.01020282693207264
0.06998781859874725
-0.011367138475179672
0.14866894483566284
-0.20368511974811554
0.0565260611474514
-0.09106668829917908
0.019459286704659462
0.10080260783433914
0.18428674340248108
0.16015000641345978
0.18133574724197388
0.11695073544979095
0.0650610402226448
0.09713560342788696
0.19570544362068176
0.18977020680904388
0.0521797277033329
-0.10869570076465607
0.13084623217582703
0.04524741694331169
0.012771684676408768
-0.03964070975780487
-0.1860979199409485
-0.07060438394546509
0.12043607234954834
-0.04882097989320755
-0.028440380468964577
-0.010631527751684189
0.1090836375951767
0.05378684774041176
0.11652228236198425
-0.029447460547089577
0.40321484208106995
-0.06473425030708313
0.02291441522538662
0.08823966979980469
0.0314699150621891
0.003657672554254532
0.30136632919311523
0.06819336861371994
-0.061502549797296524
0.07166169583797455
0.02656133472919464
0.3537839949131012
-0.10534685105085373
0.11304005235433578
0.09058980643749237
0.003270213957875967
0.057274527847766876
0.5151352882385254
0.04955431818962097
0.10499271005392075
0.0009248473215848207
0.29588520526885986
-0.06795338541269302
0.07762887328863144
-0.17350733280181885
-0.2482786476612091
0.29131513833999634
0.10268623381853104
-0.025469934567809105
0.42275747656822205
0.056361909955739975
-0.02182633988559246
0.2790762484073639
0.2471080720424652
-0.020559266209602356
0.4103336036205292
0.10645627230405807
-0.10768834501504898
0.03240440413355827
0.00785384327173233
0.02238067053258419
0.0889897346496582
0.09191954135894775
0.04240197688341141
0.16965486109256744
0.15932348370552063
0.5849993228912354
0.04401569440960884
0.08467992395162582
0.015562246553599834
0.05368604138493538
0.007561513688415289
-0.01701795496046543
0.06936860084533691
0.1974959671497345
0.026955975219607353
-0.040056176483631134
-0.00461080577224493
0.1897171288728714
0.013780983164906502
0.0808025524020195
-0.010054422542452812
0.2124585658311844
0.1361212134361267
-0.7691702246665955
0.04177236929535866
0.05976163595914841
0.0010543357348069549
-0.015168381854891777
0.27846628427505493
0.05268898233771324
0.1239398643374443
0.030762355774641037
0.14299273490905762
0.012184130027890205
0.033403392881155014
-0.014906605705618858
-0.0679749846458435
0.34594112634658813
