0.020160077139735222
0.03380366787314415
-0.06984168291091919
0.09233105182647705
-0.05066690221428871
-0.11497463285923004
0.04491628333926201
0.052132170647382736
-0.09029699862003326
0.058299191296100616
-0.06901518255472183
0.12364184856414795
0.034077826887369156
0.33696073293685913
0.08506225794553757
0.20526401698589325
-0.011715480126440525
0.02979586273431778
0.03174375742673874
0.06931467354297638
0.2638922333717346
0.029047992080450058
-0.011645314283668995
0.2531871795654297
-0.027647839859128
-0.03190018609166145
0.17306387424468994
0.10323003679513931
-0.04821476712822914
-0.07003500312566757
0.13773797452449799
0.11212950944900513
0.1247042715549469
-0.1865748167037964
0.05234580859541893
0.012855377979576588
-0.09792976081371307
0.0435790941119194
-0.04282877966761589
-0.0524742491543293
-0.04520414024591446
0.02063758671283722
-0.034959930926561356
-0.2777169346809387
0.04973689839243889
-0.01203976385295391
0.08024821430444717
0.02286156453192234
-0.06593196094036102
-0.04748349264264107
0.03311741724610329
0.013364274054765701
0.07917505502700806
-0.16697363555431366
-0.022366581484675407
0.26181983947753906
-0.0799531638622284
-0.08169625699520111
0.1192270964384079
0.1643562763929367
0.06904832273721695
-0.0692812129855156
-0.045341040939092636
0.0007049755076877773
0.038379207253456116
0.1381051242351532
-0.032860733568668365
0.12167958170175552
-0.15710125863552094
0.104820117354393
0.2536720931529999
0.07288336753845215
0.006461090873926878
-0.10819655656814575
0.063716821372509
0.1831408590078354
0.01791943423449993
0.024258388206362724
-0.0031208705622702837
0.02261466532945633
0.015530484728515148
0.10978111624717712
-0.012772527523338795
0.0940956249833107
-0.013125450350344181
-0.010867592878639698
0.16507592797279358
0.07459896802902222
-0.019929228350520134
0.17157314717769623
0.182654470205307
0.038608912378549576
-0.04619027301669121
0.07529124617576599
-0.051924929022789
0.07582613825798035
-0.07365786284208298
0.16724534332752228
-0.08334452658891678
0.08664871007204056
0.004829973913729191
0.1771261841058731
0.06105310469865799
0.01431215088814497
-0.019081590697169304
-0.00373212993144989
-0.05032975971698761
0.022404499351978302
0.028962528333067894
-0.0602792352437973
0.060645606368780136
0.047945160418748856
0.06233252212405205
0.04665286839008331
0.05086121708154678
0.00574565539136529
-0.1017797514796257
0.3234575092792511
0.025514403358101845
-0.025908173993229866
0.033445507287979126
0.02219376526772976
0.09599914401769638
-0.03045026585459709
0.11433283239603043
0.06612195074558258
-0.012697489932179451
-0.11671487987041473
-0.104008249938488
-0.013546451926231384
-0.03641827031970024
-0.028950829058885574
-0.025000998750329018
0.18755999207496643
-0.03255515173077583
0.09893283247947693
0.03416547179222107
-0.08972528576850891
0.09438520669937134
0.1789098083972931
-0.028172414749860764
0.13378028571605682
0.0010147986467927694
-0.18205636739730835
-0.03188791126012802
-0.006739668548107147
-0.033780213445425034
0.007660453673452139
-0.014881184324622154
0.09793782234191895
0.10155351459980011
0.24054208397865295
0.03884989395737648
0.00892573781311512
-0.019787603989243507
0.012042076326906681
0.10046353191137314
-0.06860703229904175
-0.14309847354888916
-0.0015001915162429214
0.03484959527850151
0.022487575188279152
-0.025383101776242256
-0.014824253506958485
-0.10537745803594589
0.02355588972568512
-0.05986331030726433
0.02785068191587925
-0.09507684409618378
-0.002663444494828582
-0.006799716502428055
0.09173513948917389
0.02156507782638073
0.026086047291755676
0.14501477777957916
-0.03960120305418968
-0.031457673758268356
-0.1445380002260208
0.03595510497689247
0.021896952763199806
0.11833332479000092
0.035246722400188446
-0.024638446047902107
0.04750298708677292
0.125839501619339
-0.1393812894821167
0.0567476712167263
0.09459530562162399
0.014654994010925293
0.11290249973535538
0.07787693291902542
0.08036584407091141
0.027147188782691956
-0.03233806788921356
-0.012919723056256771
-0.0387306734919548
-0.04463508352637291
0.121696837246418
0.059837158769369125
0.04331812262535095
-0.13186028599739075
0.1267908215522766
-0.12342465668916702
0.031635526567697525
-0.08561962097883224
0.12490177154541016
0.06605413556098938
0.001839510165154934
-0.021616362035274506
-0.06174279749393463
0.27996110916137695
-0.07650932669639587
0.12730035185813904
-0.018896562978625298
0.09656112641096115
-0.1476755291223526
-0.08376926928758621
0.1878608763217926
0.01745496317744255
0.07950498163700104
-0.15086394548416138
0.04099643975496292
-0.03835703060030937
0.18172214925289154
-0.014632530510425568
-0.003398607484996319
-0.10285798460245132
0.006112405098974705
-0.054006192833185196
0.0698121190071106
-0.007492310367524624
0.04861578717827797
0.0549069419503212
0.18059878051280975
0.06578867882490158
0.022878946736454964
0.05162922292947769
-0.019063256680965424
-0.04344421252608299
0.06735874712467194
-0.0060075256042182446
-0.09539872407913208
-0.06589861959218979
0.13809745013713837
-0.0737137421965599
-0.014407520182430744
-0.02121005393564701
-0.12984901666641235
-0.07941288501024246
0.1022518128156662
-0.07543478161096573
-0.1380423754453659
-0.04330404847860336
0.08864066749811172
0.11967211216688156
0.10587382316589355
