-0.001866644131951034
0.05709528177976608
0.29341721534729004
-0.04183536767959595
-0.1455850452184677
0.09758011251688004
0.0023287383373826742
-0.046849049627780914
-0.11053454875946045
0.0366310216486454
-0.023669786751270294
0.19662179052829742
0.006294238846749067
0.10368052870035172
-0.12430252134799957
-0.05552464351058006
0.10667287558317184
0.28836333751678467
0.0754418671131134
0.045309070497751236
0.07135193049907684
0.09456877410411835
-0.10453038662672043
-0.30553069710731506
-0.147690087556839
0.15423519909381866
-0.036025747656822205
-0.016673564910888672
0.050073131918907166
-0.10362352430820465
0.16252261400222778
0.03686729446053505
-0.056979477405548096
-0.08177188783884048
0.20143520832061768
0.07001539319753647
-0.2285853773355484
0.13821572065353394
0.2611296772956848
0.021136129274964333
0.1023431271314621
0.08647328615188599
0.061110686510801315
0.07276681810617447
0.006977257318794727
-0.04205387830734253
0.1013721451163292
0.1838935911655426
0.09883192181587219
0.26406896114349365
0.05337819084525108
0.1670953929424286
0.250887393951416
0.11613434553146362
0.21969649195671082
0.13893844187259674
-0.047889482229948044
-0.09795249998569489
0.10368269681930542
0.16410261392593384
0.19025033712387085
0.07452601194381714
0.2201281487941742
0.09435524791479111
-0.04788222536444664
0.04683322086930275
-0.003931989893317223
0.1878470480442047
-0.022728929296135902
0.14750024676322937
0.14187565445899963
0.18834391236305237
0.02494421787559986
0.2174784392118454
0.10304170846939087
0.1512523591518402
0.17674876749515533
0.0603826642036438
0.16430747509002686
0.03488105535507202
0.038003984838724136
-0.06840065121650696
0.0062248012982308865
0.013423193246126175
-0.13955500721931458
0.07809698581695557
0.19549593329429626
-0.1259399652481079
0.09603670984506607
-0.0020711489487439394
0.06935726851224899
-0.16091090440750122
0.08994399756193161
0.2561569809913635
-0.09819980710744858
0.2658874988555908
-0.0231434628367424
-0.17000755667686462
-0.0002494209329597652
0.029672646895051003
0.10278209298849106
0.1547906994819641
0.19948025047779083
-0.2805075943470001
0.105744868516922
0.0782083198428154
0.061701927334070206
0.07923664152622223
0.0017735603032633662
-0.09690256416797638
0.21889899671077728
-0.03363059088587761
0.030116142705082893
0.2672821879386902
0.07265450060367584
0.03834718465805054
0.04468439146876335
0.29473236203193665
0.026412663981318474
0.2646152675151825
0.22293561697006226
-0.17687271535396576
0.14486949145793915
0.252774178981781
0.09567702561616898
0.07353471219539642
0.12853595614433289
0.3468826711177826
0.11824239790439606
0.3158956468105316
-0.08252304047346115
-0.2826389968395233
0.2518652081489563
-0.04477286711335182
0.08905287086963654
0.002158684190362692
0.18896278738975525
0.16209840774536133
-0.19769591093063354
0.15448789298534393
-0.01755252294242382
-0.01651197485625744
0.1899046003818512
0.06140408664941788
0.16946196556091309
-0.027087725698947906
0.05314546078443527
0.1096448078751564
0.13799579441547394
0.06733240187168121
-0.00506289629265666
-0.17180311679840088
0.0760774090886116
-0.01295779924839735
0.13120180368423462
-0.0828695297241211
0.10817519575357437
0.11669503897428513
0.19102446734905243
-0.2603158950805664
0.12424689531326294
-0.6417413949966431
-0.09454403072595596
0.14883267879486084
-0.02217688411474228
0.1938839703798294
0.2270766943693161
-0.030474934726953506
0.04363632947206497
0.025054046884179115
0.04801620543003082
0.2494295984506607
0.0862371027469635
0.009535467252135277
0.006024723872542381
0.15412071347236633
0.15840046107769012
0.13795511424541473
-0.12680353224277496
0.13226331770420074
0.046432383358478546
0.22256359457969666
0.2636302411556244
-0.003500104881823063
0.18687234818935394
-0.03554593399167061
0.0002988323103636503
0.07708731293678284
0.07426092773675919
0.19940631091594696
-0.028898512944579124
0.028666231781244278
0.002229186939075589
0.06050429493188858
0.1270361989736557
-0.19055433571338654
0.1416834592819214
0.0581238828599453
0.025608886033296585
0.11290305107831955
0.3186722993850708
-0.06870434433221817
0.22565151751041412
0.1593332588672638
0.03975208103656769
0.1282520443201065
0.14173562824726105
0.41308245062828064
0.04675167053937912
0.12244649976491928
0.21968424320220947
0.04985624551773071
0.07163105905056
-0.039454877376556396
-0.23027688264846802
0.13457930088043213
-0.04281606152653694
0.015429308637976646
-0.6688944101333618
0.16270115971565247
0.02220788598060608
-0.17758475244045258
0.12783005833625793
0.021326636895537376
-0.5521230101585388
0.2601003348827362
0.08035524189472198
0.09429454058408737
-0.07312969118356705
0.16812242567539215
0.05428053066134453
0.14536310732364655
0.1937609612941742
0.3557707369327545
0.05116471275687218
0.2236022800207138
0.23526443541049957
0.16229134798049927
0.00950423814356327
-0.20073671638965607
0.014703447930514812
-0.20507065951824188
0.1599128246307373
-0.11455284059047699
0.2459624707698822
0.06555736809968948
0.1016739085316658
-0.08463507890701294
-0.36976101994514465
0.0012340480461716652
-0.05057979375123978
0.08352279663085938
-0.28551775217056274
0.13613560795783997
0.12556323409080505
0.27155378460884094
-0.11871174722909927
0.01426315400749445
0.08387749642133713
-0.02167513221502304
-0.10315340012311935
0.04077662527561188
0.016203638166189194
-0.06423981487751007
-0.00840879324823618
0.10338792204856873
-0.03266637399792671
-0.0742877945303917
-0.05599769949913025
0.13323673605918884
-0.12704110145568848
0.2531438171863556
0.2731097340583801
-0.07672673463821411
0.1636015772819519
0.14462387561798096
0.0487762987613678
0.12074866890907288
-0.31965550780296326
0.06869980692863464
-0.3042171895503998
0.05171841382980347
0.06938937306404114
-0.005453768651932478
0.1412929892539978
-0.2431502342224121
0.1387196183204651
0.07053142786026001
-0.19634905457496643
0.2321529984474182
0.05349702015519142
0.12996292114257812
0.23196376860141754
0.053782589733600616
-0.3201114237308502
0.0975051000714302
0.06946581602096558
0.12733902037143707
-0.06529531627893448
0.1389559507369995
0.09796682000160217
0.0036167746875435114
-0.04933549836277962
0.22808685898780823
-0.18391209840774536
0.0847705751657486
-0.04934515431523323
0.03635450452566147
-0.014925397001206875
-0.03324729949235916
-0.028800733387470245
0.07343176752328873
0.10933922231197357
0.21104680001735687
0.0743073895573616
-0.03386322781443596
-0.00970550812780857
-0.04407418891787529
0.052093200385570526
0.0738702341914177
0.22864440083503723
0.4431471526622772
-0.2660630941390991
0.24655522406101227
0.008812331594526768
0.26059454679489136
0.026270486414432526
0.004919916391372681
-0.020948190242052078
0.23406608402729034
0.046749986708164215
-0.1863720864057541
-0.06007406488060951
0.019931582733988762
0.12410762161016464
0.06910824030637741
0.0876276046037674
0.06059529632329941
0.019304703921079636
0.007328168489038944
0.2790681719779968
0.1580973118543625
0.14193490147590637
0.07206832617521286
0.12329629063606262
0.2297210395336151
0.037315573543310165
0.27085062861442566
0.26734697818756104
0.29072684049606323
-0.12664245069026947
-0.1797911375761032
0.14585807919502258
-0.16733770072460175
0.3006655275821686
0.055058546364307404
0.03303451091051102
-0.11998465657234192
0.092902772128582
0.11211632192134857
0.003762567415833473
0.14395488798618317
0.06193819269537926
-0.01214042492210865
-0.06171831861138344
0.2524963915348053
0.13299770653247833
0.16233795881271362
0.0829525887966156
0.026083456352353096
0.13915863633155823
0.2051294595003128
0.0006791228079237044
-0.17944878339767456
0.15764300525188446
-0.038579028099775314
-0.019391750916838646
0.1250222772359848
0.26849842071533203
0.10505649447441101
0.005586786661297083
0.016504941508173943
0.006368182133883238
0.08142690360546112
0.06672906130552292
0.055360160768032074
0.08751725405454636
-0.04004558548331261
0.16139088571071625
0.07191905379295349
-0.0056357537396252155
0.21567991375923157
-0.07436570525169373
0.05806867033243179
0.26334890723228455
0.028281375765800476
0.24417400360107422
0.24759434163570404
-0.029012903571128845
0.3237914443016052
0.16892854869365692
0.13745664060115814
-0.10394097119569778
0.09357991069555283
-0.051709797233343124
0.03518117964267731
0.14746350049972534
0.05379902198910713
0.04137199744582176
0.16983993351459503
0.14468486607074738
-0.147025004029274
0.06051500514149666
0.06316656619310379
0.1252376139163971
0.05319354683160782
0.07602618634700775
0.10579433292150497
0.09849053621292114
0.1901983916759491
0.0552038848400116
0.31726932525634766
-0.05238693952560425
0.13097243010997772
0.008281774818897247
0.2918426990509033
0.05878189578652382
-0.05102114379405975
-0.04219384118914604
-0.011820049956440926
-0.01475105807185173
0.013293328694999218
-0.05191708728671074
0.008311553858220577
0.052254755049943924
-0.07944577932357788
0.15421611070632935
0.056511249393224716
-0.16342361271381378
-0.02613968588411808
-0.14221760630607605
0.14182940125465393
0.01588367111980915
-0.3703727424144745
0.10356846451759338
-0.025953255593776703
0.0021196180023252964
0.12329905480146408
-0.2909485399723053
0.45271745324134827
0.01188979297876358
0.05395083874464035
0.13336403667926788
0.1488509178161621
-0.2533298134803772
0.2763441801071167
0.19909673929214478
0.07103107869625092
-0.04554173722863197
0.4190105199813843
0.02351069077849388
0.09146343171596527
0.22576482594013214
-0.07069282978773117
0.0959639847278595
0.03764050081372261
0.034061986953020096
0.07101850211620331
0.033746931701898575
-0.07692979276180267
0.061838626861572266
0.0911875069141388
0.27429500222206116
0.07165016233921051
0.027826545760035515
0.22713926434516907
0.09921904653310776
0.13662965595722198
0.14738322794437408
0.1803014576435089
0.06925126910209656
0.02069556713104248
0.026268193498253822
0.07363294064998627
0.0026631068903952837
0.03224785253405571
0.2313414067029953
0.07928033173084259
0.059422820806503296
-0.27435219287872314
0.10281796753406525
-0.31730592250823975
0.10250187665224075
0.07782330363988876
0.0742291733622551
0.2729073166847229
0.20421701669692993
0.29675865173339844
0.11258567124605179
0.4318074882030487
0.0006720139062963426
0.012158985249698162
-0.10740919411182404
-0.14713111519813538
0.14593034982681274
0.053301870822906494
0.2096564918756485
0.07447073608636856
0.1640108823776245
0.0844234749674797
0.20855794847011566
-1.4974256753921509
