0.008111410774290562
0.0007575891213491559
0.09205048531293869
0.040137965232133865
-0.04588136449456215
0.04285817965865135
0.0023107286542654037
0.06540582329034805
0.08975547552108765
0.0891118124127388
0.06971120834350586
0.20356176793575287
-0.19835078716278076
-0.015641173347830772
-0.02336493507027626
-0.009023262187838554
-0.011717400513589382
0.03898882865905762
-0.03263707831501961
0.2341744601726532
0.10071878880262375
0.06582526117563248
0.01959974505007267
0.1380656361579895
-0.13175205886363983
0.027280474081635475
0.2148529440164566
0.012595506384968758
0.07439956068992615
0.1736801713705063
-0.11281248182058334
0.12593193352222443
0.03209169581532478
0.13617369532585144
0.0060330042615532875
0.07777969539165497
0.16102047264575958
0.2222777009010315
0.16650407016277313
-0.013183949515223503
-0.02378060668706894
0.14248055219650269
0.15520396828651428
0.08694269508123398
0.14120076596736908
-0.0428774356842041
0.06772762537002563
0.020553596317768097
0.10803904384374619
0.2639572322368622
0.10633980482816696
-0.026112215593457222
-0.014041882939636707
0.1273307353258133
0.04102831706404686
-0.14617043733596802
-0.025701262056827545
0.01398393139243126
0.04857758805155754
-0.009240875951945782
0.02279883623123169
0.04283907637000084
0.02260923758149147
0.006621955893933773
0.001402124296873808
0.12702472507953644
0.03204643353819847
0.0988878533244133
-0.017222585156559944
0.14741888642311096
0.08303409069776535
0.14771109819412231
0.2371390461921692
0.040256649255752563
-0.055797576904296875
0.018877819180488586
0.047358863055706024
-0.031127676367759705
0.05523425340652466
0.026845134794712067
0.021852437406778336
-0.12408311665058136
-0.04017414525151253
0.08362133800983429
0.06698724627494812
0.008264572359621525
0.07016225159168243
0.11470488458871841
0.13469909131526947
-0.012791107408702374
0.28899237513542175
0.15768258273601532
-0.18167266249656677
-0.015958638861775398
-0.0035871246363967657
0.08744612336158752
0.040373049676418304
0.04379667714238167
0.0861484557390213
0.11539197713136673
0.16071458160877228
-0.02307971753180027
0.11553699523210526
-0.0018257811898365617
0.013590972870588303
0.09498130530118942
0.04768708720803261
-0.09880627691745758
0.06162342429161072
0.09483505040407181
-0.06890672445297241
-0.010179559700191021
0.11818546801805496
-0.12923716008663177
0.022260699421167374
0.08177651464939117
0.07222698628902435
0.015642860904335976
0.11652089655399323
-0.03590765595436096
0.07513563334941864
0.029013823717832565
0.02861781045794487
-0.05598922446370125
0.18825720250606537
0.0147370845079422
0.10535169392824173
0.10673416405916214
-0.10826028138399124
0.05137720704078674
0.10416082292795181
0.05180618166923523
0.10166241228580475
0.1113845705986023
0.022332027554512024
-0.08219587057828903
-0.008984025567770004
0.08570163697004318
0.025121334940195084
-0.07312863320112228
0.10571227967739105
0.12949499487876892
0.042981620877981186
0.0720844492316246
0.023612938821315765
0.06709758192300797
0.07144554704427719
0.00031504352227784693
0.03660975769162178
-0.07147957384586334
0.03933574631810188
0.039491839706897736
-0.020867271348834038
0.050928592681884766
-0.039969030767679214
0.03183218464255333
0.006023922003805637
-0.02122061513364315
-0.015289122238755226
0.11335698515176773
0.006937131285667419
0.05922955647110939
-0.08387819677591324
-0.07428906857967377
-0.16825464367866516
-0.02441740781068802
0.18753112852573395
0.036865778267383575
0.18613705039024353
0.09964219480752945
0.0322241485118866
0.07108084857463837
0.04830779507756233
0.11733807623386383
0.03223090618848801
0.00787231232970953
-0.04533401504158974
0.0018608052050694823
0.006748549174517393
0.18543444573879242
0.07221421599388123
0.04620039090514183
0.04797796532511711
0.0030236721504479647
0.13931311666965485
0.014903305098414421
-0.028536103665828705
0.0868973582983017
0.042455971240997314
-0.031545959413051605
0.056100256741046906
0.10134093463420868
0.05670491233468056
0.16359888017177582
-0.059132806956768036
0.10751308500766754
-0.04563748091459274
0.034131187945604324
-0.028968995437026024
0.10953063517808914
0.13750842213630676
-0.03558805212378502
0.07605912536382675
0.028778299689292908
0.05514494329690933
0.10781720280647278
-0.03630262613296509
0.2171201854944229
0.05256548151373863
0.06960279494524002
-0.10632704198360443
0.12615829706192017
0.04179273173213005
0.029012855142354965
0.06889095157384872
0.13728763163089752
-0.0678374245762825
0.10058533400297165
-0.0018706751288846135
-0.09189502894878387
0.13778507709503174
-0.09679592400789261
0.07351217418909073
0.03739636018872261
0.03388885408639908
-0.08662229776382446
0.06306945532560349
0.05609965696930885
0.08149813860654831
0.004704983904957771
-0.013049004599452019
0.049954116344451904
-0.11081745475530624
0.01685912348330021
0.11484893411397934
0.029858049005270004
0.03981413319706917
0.10973432660102844
0.024472016841173172
0.0545010045170784
-0.19355538487434387
0.16330230236053467
0.039093196392059326
-0.03283636271953583
0.18203745782375336
0.024580586701631546
0.024369480088353157
0.09857526421546936
-0.006219219882041216
0.04073181375861168
-0.013291101902723312
0.025873811915516853
0.1405271291732788
0.06534413248300552
-0.00961244385689497
0.05644351243972778
