0.05309581011533737
0.010493703186511993
0.2303050011396408
0.037628788501024246
0.08636244386434555
-0.053444791585206985
0.1385788917541504
-0.07112259417772293
-0.04158187657594681
-0.060356833040714264
0.02870183065533638
0.03986974433064461
0.02451060712337494
-0.029191959649324417
0.022517608478665352
0.15704859793186188
0.15072885155677795
-0.03474680706858635
-0.029307855293154716
0.1686556339263916
-0.07893615961074829
0.15662126243114471
0.06926973164081573
0.21940456330776215
0.008596041239798069
0.04423114284873009
0.00581543892621994
0.32049110531806946
0.21365666389465332
0.020677408203482628
-0.21056486666202545
0.2344915270805359
-0.00048404306289739907
0.12819135189056396
0.027670206502079964
0.013769853860139847
-0.08248013257980347
0.11656992882490158
0.0013776159612461925
-0.06934349983930588
-0.0424836203455925
-0.04867607355117798
0.15155979990959167
0.045193515717983246
0.09545520693063736
0.0992300733923912
-0.049601584672927856
0.10384757816791534
-0.19058161973953247
-0.00684779928997159
0.12834255397319794
-0.15413829684257507
-0.0829172283411026
0.12840192019939423
0.10515084862709045
-0.0034902903717011213
-0.024073582142591476
0.27386096119880676
0.08250632882118225
0.026081480085849762
0.10385139286518097
0.12872765958309174
0.011904158629477024
0.32242321968078613
0.07752788811922073
0.15679791569709778
-0.09449591487646103
0.06586692482233047
0.11608484387397766
0.029928013682365417
0.045040011405944824
0.06675676256418228
-0.0038690075743943453
0.04560812562704086
-0.06079786643385887
-0.07903129607439041
0.18972806632518768
0.09717735648155212
0.028906669467687607
0.05251234397292137
0.08948057889938354
-0.01024549175053835
-0.03324667736887932
0.03245491907000542
0.1744903326034546
0.05414910241961479
0.03548676520586014
-0.06003476306796074
0.10988267511129379
0.041636303067207336
0.10168233513832092
-0.013879976235330105
-0.022165317088365555
-0.023697111755609512
-0.020682262256741524
-0.07410917431116104
0.07114090025424957
0.28930914402008057
0.05742951110005379
0.26998141407966614
0.13690465688705444
0.1285596489906311
0.09782879799604416
-0.033965155482292175
-0.6077403426170349
0.13285355269908905
0.07612669467926025
0.0018083491595461965
0.03798278793692589
0.03132883459329605
0.2315102517604828
0.17247027158737183
0.07915893942117691
0.02070074900984764
0.046385154128074646
0.011694556102156639
0.1760280728340149
0.008715891279280186
0.14734140038490295
-0.16979707777500153
0.058873217552900314
0.00459433114156127
-0.02511611208319664
-0.01008144672960043
0.17244665324687958
0.0504569448530674
0.0031419270671904087
0.1954154670238495
0.2300993800163269
0.014896485023200512
0.006845318246632814
0.06440210342407227
0.28296875953674316
-0.019777756184339523
-0.06640295684337616
-0.17974387109279633
0.11519747227430344
0.18114741146564484
0.06782849133014679
0.1452922821044922
0.0957494005560875
-0.048106830567121506
0.17571884393692017
0.020596059039235115
0.20452846586704254
0.10452615469694138
0.0027929057832807302
-0.0672081932425499
0.11605051904916763
0.32381880283355713
-0.025631211698055267
-0.10080310702323914
-0.2747558355331421
-0.043789658695459366
0.10209189355373383
-0.04067402333021164
0.14236320555210114
0.04962118715047836
0.013615397736430168
-0.06898781657218933
-0.1560356169939041
-0.05683014169335365
0.2195645570755005
-0.03900348022580147
0.07672050595283508
0.17828640341758728
0.035840753465890884
-0.16543154418468475
0.10652843862771988
0.126911461353302
0.08084967732429504
0.03540889546275139
0.07633578032255173
0.1835400015115738
-0.03197426348924637
0.10952147841453552
-0.07780636847019196
-0.018275868147611618
0.0019916663877665997
-0.05351363122463226
0.06803091615438461
0.13051439821720123
0.05551249906420708
-0.2269236445426941
-0.17514166235923767
-0.02324128895998001
-0.08009514957666397
0.24214908480644226
-0.09373617172241211
-0.02795020118355751
-0.04003119096159935
-0.0008980294223874807
-0.13281264901161194
0.016617150977253914
-0.17895829677581787
0.002292828168720007
0.074134960770607
0.07470427453517914
-0.05385532230138779
0.003523942781612277
0.06804783642292023
-0.017627205699682236
-0.07630497962236404
-0.030225347727537155
-0.019955608993768692
0.0769578292965889
0.06663709133863449
0.07578357309103012
0.2026538848876953
0.08273623138666153
0.18189147114753723
0.1586417257785797
-0.027968864887952805
0.12253504246473312
0.16273196041584015
0.07058996707201004
0.036347825080156326
0.07523831725120544
0.040112584829330444
0.17456328868865967
0.13055117428302765
-0.2314700484275818
-0.04059198871254921
-0.09211723506450653
0.04783397912979126
0.05892319604754448
-0.04922815412282944
0.2356068342924118
0.05679893493652344
0.002617663238197565
0.18197135627269745
0.24429616332054138
0.15937361121177673
0.12356434017419815
0.020869940519332886
0.22300632297992706
-0.0872703343629837
0.002152096014469862
0.05607537552714348
0.053087592124938965
0.25135061144828796
-0.025713255628943443
-0.057986557483673096
0.12134488672018051
-0.0693315714597702
0.1710161566734314
0.08053810149431229
-0.02100900001823902
0.15748077630996704
0.13500463962554932
0.035484228283166885
0.019532794132828712
-0.10587740689516068
-0.011629561893641949
0.07321013510227203
0.06152629107236862
0.09764662384986877
0.12334217876195908
0.0796046033501625
-0.01589175872504711
0.0832916721701622
0.11109767109155655
0.052385248243808746
0.15979193150997162
0.04547376185655594
0.13826817274093628
0.02311643399298191
-0.13865944743156433
0.030925419181585312
-0.01930988021194935
0.010777589865028858
0.027404146268963814
0.15212468802928925
-0.021071739494800568
0.22597236931324005
-0.002446213038638234
-0.04523106664419174
-0.05372746288776398
0.06508620828390121
-0.08807872235774994
-0.06895923614501953
0.15688519179821014
0.03516750782728195
0.014016292989253998
0.07822775840759277
-0.007130098063498735
0.07088430225849152
-0.02029130794107914
-0.04355618357658386
0.08258730173110962
0.10355265438556671
0.24043843150138855
0.0015205148374661803
0.13740162551403046
0.1028803363442421
0.04963618144392967
0.060422223061323166
0.022114669904112816
0.04149886965751648
0.1796444058418274
0.08983534574508667
0.06378033757209778
0.044027552008628845
0.025870492681860924
0.26749375462532043
-0.08699162304401398
0.04213244095444679
0.04525135084986687
-0.006701579783111811
0.12589411437511444
0.10734978318214417
0.014337463304400444
0.05131570249795914
0.0037713064812123775
0.011460203677415848
-0.014946877025067806
-0.01371118612587452
0.14696650207042694
0.09278203547000885
0.12915612757205963
0.1746952086687088
0.0585961677134037
0.11636196076869965
0.05892367288470268
-0.14532651007175446
0.016084598377346992
0.05689115822315216
-0.04337124153971672
0.020790401846170425
-0.039938729256391525
0.0004308860225137323
0.16871750354766846
0.17437297105789185
0.11686469614505768
-0.0012211542343720794
0.0006088571390137076
0.10210084915161133
-0.026895223185420036
-0.153793066740036
0.018641650676727295
0.14518633484840393
0.13722798228263855
0.1605866551399231
0.1018834263086319
0.15789610147476196
0.05337020382285118
-0.009692165069282055
0.10661902278661728
-0.03223700448870659
0.16459323465824127
-0.03280166909098625
0.09414496272802353
0.16048632562160492
0.03362254053354263
0.08261565864086151
0.012163424864411354
0.1847546249628067
-0.15922512114048004
0.11077996343374252
0.04329700767993927
0.09364885091781616
-0.005273588467389345
0.15715645253658295
0.17663420736789703
0.1576644331216812
-0.06535591185092926
0.04149659350514412
0.05571545660495758
-0.050332892686128616
0.04913803189992905
0.0514022558927536
0.09555737674236298
0.029288453981280327
0.0708102285861969
0.2347956895828247
0.13227863609790802
-0.02359882928431034
-0.12055307626724243
0.026201043277978897
0.04753110185265541
-0.023009376600384712
0.01658480428159237
0.07953277230262756
0.35150736570358276
0.21487107872962952
0.03214692324399948
0.019150597974658012
0.2616017162799835
0.06061949580907822
-0.0274659413844347
0.3868522047996521
0.26087045669555664
-0.016857827082276344
0.03976752609014511
-0.11643379926681519
-0.11087914556264877
-0.26394593715667725
-0.05551156774163246
0.23809249699115753
0.041466664522886276
-0.0677679106593132
0.07454504817724228
0.16406488418579102
0.04179178178310394
0.014025982469320297
-0.08957543224096298
0.040770500898361206
-0.006365910172462463
0.1655404418706894
0.03287937864661217
-0.10687439888715744
0.21431784331798553
-0.0005321934004314244
-0.04802928492426872
0.15006110072135925
0.025356674566864967
-0.06604624539613724
-0.003578406060114503
-0.015199217014014721
-0.1522682160139084
0.2688039541244507
0.1443381905555725
0.08764153718948364
0.1490461677312851
0.04540655016899109
0.06889272481203079
0.06436050683259964
0.31034669280052185
0.049364738166332245
-0.009456572122871876
-0.017363177612423897
-0.10042327642440796
0.08594313263893127
0.021078065037727356
-0.053362831473350525
-0.02803267538547516
-0.03248406574130058
0.008763086050748825
0.057897135615348816
0.06653343141078949
0.005547144915908575
0.1629173755645752
0.0017233248800039291
0.3362659811973572
-0.040299441665410995
0.04198048263788223
0.1756855547428131
0.006034946534782648
0.06153397262096405
0.010450671426951885
0.013474400155246258
0.06570963561534882
0.07186702638864517
0.04950936138629913
0.3029788136482239
-0.048346295952796936
0.15134716033935547
0.1007043793797493
0.02293236553668976
0.2647295296192169
0.09390256553888321
0.0682768002152443
0.21147553622722626
0.034836020320653915
0.1982823610305786
0.09352681785821915
0.040988288819789886
0.20483127236366272
0.02462753653526306
-0.01593623124063015
-0.07922181487083435
0.017062842845916748
0.07022765278816223
0.05147803574800491
0.028279634192585945
-0.003876249771565199
-0.10082229971885681
0.13169598579406738
0.17212606966495514
0.12682263553142548
0.12298579514026642
0.09619604051113129
0.14434383809566498
-0.02945372834801674
0.12433040142059326
-0.18897342681884766
0.004473754204809666
0.06699161976575851
-0.048119839280843735
0.06597248464822769
-0.19315530359745026
0.22723431885242462
0.056969065219163895
0.05157847702503204
0.06006959080696106
0.06130702421069145
0.10806169360876083
0.0370069183409214
0.08349645137786865
0.023447319865226746
0.04916782304644585
0.015781497582793236
0.011263156309723854
0.18550705909729004
0.11120887100696564
0.00909186527132988
-0.01764441281557083
0.15611499547958374
-0.03908005729317665
0.012658005580306053
-0.05565205216407776
0.08259373903274536
