0.0020260896999388933
-0.09024322032928467
0.6163794994354248
-0.08175159990787506
0.24501965939998627
-0.04875093698501587
0.13069039583206177
-0.029005346819758415
-0.14292466640472412
0.30679211020469666
-0.03992936387658119
-0.25241371989250183
0.09988052397966385
-0.232570081949234
0.03529926761984825
-0.0903884693980217
0.11384522169828415
-0.03065461851656437
-0.010815826244652271
-0.02152002789080143
0.055418483912944794
0.13820423185825348
0.03616982698440552
-0.4510803818702698
0.005615352187305689
-0.02459356188774109
-0.42962852120399475
-0.1458079069852829
0.3813311755657196
-0.03588307648897171
0.11842624098062515
-0.3527310788631439
-0.023868944495916367
-0.02345346100628376
0.6499451994895935
-0.06343033909797668
-0.015204360708594322
-0.22846706211566925
0.09405902028083801
-0.5053167939186096
0.19064724445343018
0.09444504976272583
0.3406323790550232
-0.08326089382171631
0.19241905212402344
-0.19527888298034668
-0.04207250848412514
-0.16063566505908966
0.3964083194732666
0.20677687227725983
0.18119288980960846
-0.11976136267185211
-0.07241271436214447
-0.12396450340747833
0.13131853938102722
0.10433822870254517
0.5469484925270081
0.5208004713058472
0.050897467881441116
-0.8277506232261658
0.4371565878391266
-0.3734387457370758
-0.3264074921607971
-0.1213061511516571
