0.016997279599308968
-0.08752308785915375
-0.03994547575712204
0.11658930033445358
0.007146262563765049
-0.00862246472388506
0.0035613214131444693
0.041199807077646255
0.07984110713005066
0.0953071117401123
0.07811109721660614
0.03981343284249306
0.06825746595859528
-0.052503619343042374
0.43717464804649353
0.1483088582754135
0.030032845214009285
0.22732940316200256
0.09573179483413696
0.007651749532669783
0.09767162054777145
-0.11207209527492523
0.01853281818330288
-0.12867490947246552
-0.05798619985580444
0.14702236652374268
-0.01054714061319828
-0.16095349192619324
0.12300016731023788
-0.17011618614196777
0.12401136755943298
-0.07530958950519562
0.03170076012611389
0.17606735229492188
-0.17783857882022858
0.10112903267145157
-0.24997751414775848
-0.13779222965240479
0.05395461618900299
-0.12948232889175415
0.004854466766119003
0.0737917423248291
-0.14858508110046387
0.09539195150136948
-0.024601949378848076
0.08389683067798615
-0.06540137529373169
-0.09768093377351761
0.044745057821273804
-0.13099758327007294
0.04853226616978645
0.03860821947455406
0.1313682347536087
0.03805483505129814
0.04135739430785179
0.05106146261096001
-0.04059341922402382
0.23770691454410553
-0.056326974183321
0.1697026789188385
0.030758680775761604
-0.09620145708322525
-0.0642060711979866
-0.10849101841449738
0.026529058814048767
-0.21004219353199005
0.10224591195583344
-0.07034767419099808
-0.1298430860042572
0.07154122740030289
-0.07214154303073883
-0.005539781413972378
0.17476005852222443
0.05484596639871597
0.210851788520813
-0.05799590051174164
0.08294765651226044
0.2752786874771118
-0.11894697695970535
0.04267080873250961
0.01141344103962183
0.009555373340845108
0.027649568393826485
0.08308064192533493
0.16357994079589844
0.1559392362833023
-0.03793216869235039
-0.009647178463637829
0.09258490055799484
-0.048008304089307785
0.08219859004020691
-0.3239845931529999
0.1338147521018982
0.1116970032453537
-0.15707997977733612
-0.12177665531635284
0.07388053834438324
0.12439186125993729
-0.11056515574455261
-0.06756681203842163
0.13010643422603607
-0.02257617376744747
0.04384733363986015
-0.3320237696170807
-0.09600765258073807
-0.01540052704513073
-0.1423254758119583
0.17159590125083923
-0.08821344375610352
0.02265438437461853
-0.012758956290781498
0.05163764953613281
0.04116736352443695
-0.08511581271886826
-0.017607776448130608
0.0759141594171524
-0.0011214008554816246
0.2124408483505249
0.021547922864556313
0.13191212713718414
0.010271054692566395
0.07849333435297012
0.15120118856430054
-0.007070576772093773
-0.04536595195531845
-0.06886838376522064
0.18618737161159515
-0.015457645058631897
-0.0019538183696568012
0.05669587478041649
0.40296536684036255
-0.11121874302625656
0.037485282868146896
0.12392766028642654
0.26618820428848267
-0.006033073179423809
0.04396079480648041
0.16793403029441833
-0.046771369874477386
-0.0389351062476635
-0.051440343260765076
-0.09746088832616806
-0.09147363156080246
0.12764190137386322
0.08397650718688965
0.074842669069767
0.1412217617034912
-0.028846900910139084
0.03301290050148964
0.14289994537830353
0.12551036477088928
0.015431349165737629
-0.08256670087575912
-0.0479610301554203
-0.05515747144818306
-0.023662488907575607
-0.012303625233471394
-0.016171980649232864
-0.13185350596904755
-0.032622262835502625
0.00859796442091465
-0.13254952430725098
0.0498172827064991
-0.05290178582072258
0.03745687007904053
-0.20201238989830017
0.06607910245656967
0.027191730216145515
0.15407492220401764
0.10915320366621017
-0.2108987718820572
0.1884760856628418
0.2147340178489685
0.018385926261544228
0.10403385758399963
0.005979720503091812
0.01225842721760273
-0.015530944801867008
-0.12297268956899643
0.12949813902378082
0.17971670627593994
0.12616097927093506
0.09651904553174973
0.09922481328248978
-0.03713309392333031
-0.11575348675251007
0.015435304492712021
-0.05383395776152611
0.10502202808856964
-0.020073318853974342
0.02061951719224453
-0.0196421816945076
0.1352234035730362
0.04456821829080582
-0.07323713600635529
-0.12374202907085419
-0.03172186017036438
-0.03603924810886383
0.03005998767912388
0.06162017211318016
0.03371807932853699
-0.01571366749703884
-0.03482581675052643
-0.060854263603687286
0.08380035310983658
0.018768981099128723
0.15213295817375183
0.0852237194776535
0.07579163461923599
0.10706010460853577
-0.42494574189186096
0.11640457808971405
-0.22343158721923828
0.11909417808055878
-0.128139466047287
0.008958160877227783
0.07075454294681549
-0.2281103879213333
0.09811819344758987
-0.1367151439189911
0.18078258633613586
0.05558411404490471
0.18741346895694733
0.02544546313583851
0.10879828035831451
-0.053879376500844955
0.0018953571561723948
0.00592628913000226
0.20565831661224365
0.03942669555544853
0.1581154465675354
0.01829315908253193
0.28055956959724426
0.11011446267366409
0.1550443470478058
0.0755336657166481
0.07325222343206406
0.16880720853805542
0.06664101034402847
0.07844583690166473
-0.01930272951722145
0.13514479994773865
0.038848064839839935
-0.07871540635824203
-0.024681512266397476
0.09897085279226303
0.04426974058151245
-0.058033689856529236
0.018438400700688362
-0.08432357758283615
-0.072090283036232
0.18304798007011414
0.09345841407775879
0.057189010083675385
0.06823322921991348
0.06332802027463913
0.07216417789459229
0.015697982162237167
0.09262778609991074
0.033019308000802994
0.0032265440095216036
0.08889429271221161
-0.12999801337718964
0.0027636121958494186
0.05769489333033562
-0.0365530364215374
-0.011188384145498276
0.1616763472557068
0.24409805238246918
0.03203684464097023
-0.03263041004538536
0.04160883650183678
0.16842010617256165
0.09446941316127777
-0.13733308017253876
-0.02338959090411663
-0.13075509667396545
-0.027255773544311523
0.05383054539561272
-0.014551996253430843
0.09605389833450317
0.03950851410627365
0.09240436553955078
0.052596524357795715
0.03352906554937363
0.002539415378123522
0.09173648059368134
-0.18198806047439575
-0.0453195683658123
0.055710319429636
0.049833185970783234
-0.16774865984916687
0.12425262480974197
0.036861106753349304
0.09738943725824356
0.14429526031017303
0.10937022417783737
-0.021108370274305344
0.1177685335278511
0.13233649730682373
0.14809361100196838
0.04066650569438934
0.0032417636830359697
0.01463993452489376
-0.2710651755332947
0.024107683449983597
0.028035148978233337
0.04618741199374199
-0.00889536365866661
0.08096719533205032
-0.10782118141651154
-0.2722465395927429
-0.0297221876680851
0.10526690632104874
0.08196710050106049
-0.039743851870298386
-0.016479216516017914
0.14691683650016785
-0.04094120115041733
0.168484628200531
0.0012171885464340448
-0.03205418586730957
-0.025082139298319817
-0.05360587313771248
0.0626499354839325
-0.180991068482399
-0.04228490963578224
-0.11221687495708466
-0.030463162809610367
-0.07655814290046692
0.12961362302303314
-0.06614343076944351
0.12919406592845917
-0.22139662504196167
0.07803737372159958
0.008396750316023827
-0.05435127019882202
-0.05629371851682663
-0.05797611549496651
0.0264219231903553
0.16428503394126892
0.019992394372820854
-0.06083570420742035
0.04763107746839523
0.09593755006790161
0.09848037362098694
0.18133637309074402
-0.1512400060892105
0.0043854177929461
0.1926705241203308
-0.03417222201824188
-0.17237672209739685
0.05928066000342369
0.2171984612941742
0.038777682930231094
0.031198717653751373
0.03337196260690689
-0.07813353836536407
-0.107819102704525
-0.07758000493049622
-0.05306351184844971
-0.0027653570286929607
0.02104516513645649
-0.050244227051734924
-0.12194333225488663
-0.09022527188062668
0.16694413125514984
-0.07042617350816727
-0.2519487738609314
-0.040610190480947495
0.2097027450799942
0.06848182529211044
-0.14829812943935394
0.0544094555079937
-0.096297487616539
0.07504582405090332
0.04145936667919159
-0.018433891236782074
0.05147793889045715
0.031843505799770355
0.07931686192750931
-0.024072306230664253
-0.0019614791963249445
0.10515341907739639
-0.03358514979481697
-0.0998815968632698
0.19405865669250488
-0.16366098821163177
-0.15509460866451263
-0.09790800511837006
0.014445578679442406
0.11277301609516144
-0.10612256824970245
0.046881403774023056
-0.029974810779094696
0.2259410321712494
-0.05845831707119942
-0.13479606807231903
0.011510873213410378
0.028529703617095947
0.13362357020378113
0.04248173534870148
0.03153286874294281
0.11482525616884232
0.017400307580828667
-0.05446115881204605
0.09528040140867233
0.027507618069648743
-0.126195028424263
0.12727214395999908
0.027821436524391174
0.08957875519990921
0.00964699313044548
-0.15669791400432587
-0.09657181799411774
-0.21229848265647888
0.08016809076070786
0.23270078003406525
0.06807845085859299
-0.048857200890779495
-0.056180745363235474
0.11938857287168503
0.08513756096363068
0.009611152112483978
0.15149657428264618
-0.20641599595546722
-0.05213107168674469
0.17484405636787415
-0.04623151198029518
-0.11996806412935257
0.08296757936477661
0.03680569678544998
-0.04727058485150337
-0.0434396006166935
0.1425103396177292
0.10247442126274109
-0.1949111819267273
0.04206247627735138
-0.04044244438409805
0.1077912300825119
0.16920782625675201
0.05914350226521492
0.24254880845546722
0.047627996653318405
-0.03375693038105965
0.14117848873138428
-0.06515967845916748
0.12728793919086456
0.04377711936831474
0.004914690740406513
-0.037821851670742035
0.08145800977945328
0.101072758436203
0.09737833589315414
0.1034429743885994
-2.416349161649123e-05
0.1131298765540123
-0.19346024096012115
0.12787093222141266
0.23268842697143555
0.020878730341792107
-0.025601107627153397
-0.03505229949951172
0.17041128873825073
-0.025763265788555145
0.02387002483010292
0.08563744276762009
0.07631903886795044
-0.09108539670705795
-0.27451735734939575
-0.10141735523939133
-0.16270387172698975
0.1119992658495903
-0.028778746724128723
0.11194527894258499
-0.022108400240540504
-0.07168406993150711
0.05631803348660469
0.04037363827228546
-0.057313479483127594
0.05372713506221771
-0.04001898318529129
0.1573510468006134
-0.07244772464036942
-0.025735018774867058
-0.021199462935328484
0.2068779319524765
0.013732682913541794
-0.1003565713763237
0.003540897509083152
0.06167043000459671
0.049498673528432846
0.0022639711387455463
0.15323801338672638
0.10493331402540207
0.03203270584344864
0.08229973167181015
-0.04645026475191116
-0.023301027715206146
0.14093585312366486
0.01827983930706978
0.04597700387239456
0.08366642892360687
0.02059607021510601
0.02531290613114834
0.08912751823663712
0.14855530858039856
-0.2970649003982544
-0.07607545703649521
0.008231405168771744
0.07803189754486084
-0.47000643610954285
