0.1527026742696762
0.0025973564479500055
0.01176369283348322
0.06116892397403717
0.07512994855642319
0.03363753482699394
0.035932961851358414
0.1965187042951584
-0.0775575265288353
-0.046417757868766785
0.014325151219964027
-0.07986040413379669
-0.16697129607200623
-0.0019427137449383736
0.2606496512889862
0.12020231783390045
-0.03555275499820709
-0.09704606235027313
0.10956036299467087
0.3574264347553253
-0.11089995503425598
-0.1799365133047104
0.0262246485799551
0.08534589409828186
0.06953270733356476
0.18897388875484467
0.0185996126383543
-0.09098786115646362
-0.04309813678264618
-0.13298220932483673
0.061531368643045425
-0.01633717305958271
0.026829909533262253
0.0014505709987133741
0.005885300226509571
0.3832170367240906
-0.06606005132198334
-0.029243309050798416
0.15235033631324768
0.046287085860967636
0.0012095487909391522
-0.08493497222661972
0.01847253367304802
0.13713480532169342
0.012157255783677101
-0.027934689074754715
0.029902605339884758
0.2399885356426239
0.05750105157494545
0.005794648081064224
-0.04232184961438179
-0.07485747337341309
0.061581384390592575
0.03739863261580467
-0.05539655685424805
0.278687447309494
-0.007824580185115337
0.03781040385365486
0.04478893429040909
0.014597726985812187
0.19762159883975983
-0.010074866935610771
0.11339815706014633
-0.052713457494974136
0.014744305983185768
0.02633035182952881
0.06079202890396118
0.14327701926231384
-0.14618848264217377
0.04214946925640106
0.18579944968223572
0.04245617613196373
-0.007856574840843678
0.10638642311096191
0.05848844721913338
0.0768260583281517
-0.02389249950647354
-0.004361052997410297
-0.08049098402261734
-0.02211715094745159
0.11400552093982697
-0.06830758601427078
-0.08270101249217987
-0.03567150607705116
-0.055463384836912155
0.37477773427963257
0.004703937564045191
0.462184876203537
-0.11367377638816833
0.04994291812181473
-0.07818851619958878
-0.006669258698821068
-0.1540013700723648
0.002136518247425556
0.02135838195681572
0.22764445841312408
-0.032200515270233154
-0.10612944513559341
0.02807794138789177
0.02575802057981491
0.0006443214369937778
0.0170842707157135
-0.0165358055382967
-0.023683488368988037
0.01533650141209364
-0.1517801731824875
0.08784470707178116
-0.01980810984969139
-0.047751784324645996
0.03253168240189552
-0.009535841643810272
-0.06726856529712677
0.0015480034053325653
-0.060066647827625275
-0.015678588300943375
0.028764313086867332
0.33013248443603516
-0.020741373300552368
0.12749217450618744
0.0270363949239254
0.14091579616069794
-0.07363276928663254
-0.0761176347732544
0.005252942442893982
-0.10702550411224365
0.05984083190560341
-0.024972103536128998
0.3022746443748474
-0.06994131207466125
0.025649476796388626
0.10783504694700241
-0.011617306619882584
-0.03827924653887749
-0.0591224730014801
-0.10854930430650711
0.07197221368551254
-0.04298616573214531
0.28180938959121704
0.015513173304498196
-0.025502076372504234
-0.049886491149663925
0.022523002699017525
0.025593141093850136
0.19649061560630798
0.016902364790439606
-0.06358504295349121
-0.049299318343400955
0.21308046579360962
0.03484831005334854
0.09788470715284348
0.05099494010210037
-0.007305430714040995
-0.08261609822511673
-0.006293060258030891
-0.039548229426145554
0.005422662012279034
0.18296152353286743
0.0028856180142611265
0.0332149863243103
0.24060913920402527
0.05665624886751175
0.006575687322765589
-0.13588686287403107
-0.01627044938504696
0.18774312734603882
-0.05640518665313721
-0.10236798971891403
-0.08836621791124344
0.04638347029685974
0.11902496218681335
-0.11960241198539734
0.021099446341395378
-0.08096626400947571
0.09974295645952225
-0.15558578073978424
-0.0740298330783844
-0.010000340640544891
-0.02011672407388687
0.08387068659067154
-0.04531429708003998
0.008065551519393921
0.059897441416978836
-0.033785708248615265
0.222981259226799
-0.10764854401350021
0.004267147276550531
0.006541229784488678
-0.049378715455532074
-0.07674624770879745
0.047477662563323975
-0.014945573173463345
0.22787396609783173
-0.049045857042074203
-0.01242695190012455
-0.028801750391721725
-0.023774687200784683
0.02325282245874405
-0.09977012127637863
0.0037264751736074686
0.3284485638141632
-0.04244057461619377
0.3322349190711975
0.01594361662864685
-0.07101662456989288
0.046463169157505035
0.08375425636768341
0.03323645517230034
0.19019097089767456
0.03337645158171654
-0.061276111751794815
0.150936558842659
0.036280661821365356
0.12913893163204193
-0.11147069185972214
-0.04331511631608009
0.0449720062315464
-0.09857140481472015
0.07705066353082657
0.08141906559467316
0.0823877826333046
-0.0307825468480587
-0.012830677442252636
-0.006752607878297567
-0.005941878538578749
-0.020162440836429596
0.01060404907912016
-0.13168539106845856
0.11570360511541367
-0.12424582988023758
-0.08161034435033798
-0.07689987868070602
-0.04811369627714157
0.05716540664434433
0.17962759733200073
-0.035177119076251984
-0.028455430641770363
0.014417342841625214
0.11941812932491302
-0.009098991751670837
0.1399153620004654
-0.038109224289655685
0.025479864329099655
-0.06787297874689102
0.07254696637392044
0.07073452323675156
0.03242158889770508
0.02480708807706833
-0.028847843408584595
-0.03674720972776413
0.15645082294940948
0.04686146602034569
-0.02008519135415554
-0.06768669188022614
-0.03882591053843498
-0.14508934319019318
-0.19434787333011627
